1070 128
56 0.33879253 0.6788008 -0.24974763 -0.66370267 -0.34060863 -0.3248384 0.39778107 0.10360632 -0.38023528 -0.19264965 0.06796576 -0.13753411 0.088845916 -0.46632037 -0.67719775 -0.039796896 0.6321351 0.34675157 0.0800566 0.12649533 -0.19538401 0.2942268 0.03946772 -0.5082629 0.20183599 -0.12534866 0.08843134 -0.46028993 0.087253354 -0.37627292 0.38644254 -0.56401366 -0.4680865 0.314268 0.24450779 -0.15681359 -0.3921403 0.028948857 0.093620695 -0.35013717 0.2386842 -0.14918382 0.035100542 0.22587135 -0.031441078 0.07635627 0.67425925 0.79399157 -0.14077498 0.03201317 -0.23701033 -0.21431334 -0.17343226 0.07746322 -0.6764966 0.09658562 -0.40936252 -0.5398942 -0.45961893 -0.32527548 0.37990627 -0.09159846 0.1277359 -0.11865396 -0.37461433 0.5179338 0.08046656 0.064315446 -0.35865605 0.22279076 0.33085054 -0.25129583 0.04172712 0.18357033 -0.042020194 -0.33682802 0.45156562 -0.183116 -0.02214293 -0.0046944055 -0.107194506 -0.018808274 -0.59899193 0.71997803 0.3632772 -0.19221151 0.18842876 0.15602449 -0.33889335 -0.4479031 -0.23130475 0.51275355 -0.2524475 -0.07410974 -0.24181682 0.4044859 0.0025362873 0.23752598 0.4608219 -0.30154622 0.7346898 0.035199597 -0.185842 -0.18656835 0.22451386 -0.075531065 -0.11375799 0.23065366 0.05037117 0.26556617 0.48307633 -0.29484335 -0.042318728 -0.2304009 -0.24771903 -0.2670793 0.06726925 0.2200476 0.14410092 0.10567145 0.57331353 -0.28824162 -0.31733087 -0.009415593 0.09054439 -0.29684654 0.020949934 -0.44761196
83 -0.37758496 -0.19398358 -0.22727956 -0.092719726 -0.17515422 -0.45513654 0.48298335 -0.015833871 -0.5664161 0.15502939 -0.068990335 0.1031788 -0.21929409 -0.6310123 0.14135417 0.122355804 0.08691544 -0.0675011 -0.0768717 0.26759043 -0.3066278 0.11745647 -0.25450784 -0.23097846 -0.055639163 -0.23455715 -0.057381734 -0.31768125 -0.30638045 0.09608497 -0.2639917 -0.09656486 -0.77748615 0.25590733 0.33255097 -0.18843639 -0.17459047 0.11804499 0.22981735 -0.72966945 -0.22412544 -0.027772853 0.5483493 -0.032838594 0.27276367 -0.4872716 0.9131707 1.2893384 0.02365962 0.02698442 -0.058849208 0.16890222 -0.52949333 -0.23397446 0.0675471 -0.14442468 0.032664634 -0.020561524 -0.39199483 -0.0813102 0.3141961 0.058131948 0.5613376 0.11167254 -0.17214118 -0.15262614 0.39063326 -0.24919325 -0.87383455 -0.12151502 0.39753088 -0.31058547 -0.13010946 0.23327847 -0.2721288 0.011965282 0.029441444 0.13578606 -0.107929684 0.23232846 0.18564995 0.13254581 -0.017638266 0.17035058 0.37919787 0.022362122 -0.22294757 -0.28883302 -0.0714928 -0.43547326 0.30628055 0.19993536 0.003919716 -0.48051676 -0.6817978 0.3150756 0.3241865 -0.30284944 0.36047554 -0.042887904 -0.22202009 0.07148445 0.17434357 0.66470623 0.15376726 0.3581078 -0.6473812 -0.26057017 -0.12580012 0.5407507 0.19288361 -0.17658399 -0.12532653 -0.17906913 -0.52532315 -0.23715843 -0.18263057 -0.15062197 0.19128935 0.40193197 0.101348706 -0.3903692 -0.019886255 -0.8515379 -0.5791403 -0.021118717 0.4169493 -0.023988172
105 -0.42066994 0.42157185 -0.3081615 -0.8219005 0.11178898 0.08884583 0.2931066 0.11158058 0.18435028 0.045887128 -0.47151342 0.48567626 -0.57033414 -0.1661045 -0.36110365 0.3408138 0.21937433 0.2972029 -0.57403374 0.08964735 0.4433267 0.21557948 -0.13307948 0.09867041 0.32337928 -0.6169495 -0.24883981 -0.31465566 -0.117050074 0.5234431 0.32486632 -0.22970884 -0.26309198 -0.6779054 -0.06405579 -0.42260194 -0.13127674 0.31364277 -0.44631755 -0.398473 0.44810548 0.051015735 -0.04012151 -0.40096954 -0.11833262 0.5034136 0.35761943 -0.06429811 0.52285856 -0.0010935226 -0.29767108 0.3305467 0.4080185 0.31512547 -0.3149559 0.53438264 0.058421936 -0.6657309 -0.73239493 0.09406496 0.49653214 0.021914925 0.23493356 -0.10352341 -0.74780655 0.30689216 -0.30619064 -0.025035098 -0.24934328 0.7002118 0.15784784 0.6093638 -0.24811451 0.510656 -0.02165269 -0.32402697 0.32992375 -0.4447582 0.58142465 -0.56762743 0.11149576 -0.4963276 -0.25112823 1.2048303 0.27796966 -0.19421643 -0.16604117 0.57832867 -0.22736487 -0.6086503 0.013737622 -0.15138194 -0.62346214 -0.46264297 -0.20810774 0.40631148 -0.3180581 0.3633193 -0.11537632 -0.5845482 0.30726248 -0.08086054 -0.45213345 -0.37627515 0.040756434 0.066286266 -0.0052803773 0.055756833 -0.0009973261 0.08561776 0.019658217 -0.24187644 -0.24097528 0.21483205 0.29310894 0.09868504 0.20015061 0.4261444 -0.03057588 0.44476855 0.76894253 -0.6286967 -0.05161159 0.47018072 0.025497334 -0.32946783 -0.23785578 0.51671803
32 0.46840876 -0.027017782 -0.34973678 0.0024327575 0.12603007 -0.03272866 0.23088782 0.38271505 -0.3589187 0.46189058 -0.11853512 -0.31605002 -0.18091406 -0.30435443 0.18675217 0.19800271 0.25544956 -0.46586424 -0.1148004 0.20148508 -0.07970503 0.41520306 -0.10752441 -0.18150787 -0.08256142 0.09710062 -0.28411743 -0.5787478 0.5146443 0.09091419 0.17882729 0.004533759 -0.44389218 0.109526135 0.0041182437 -0.15781653 -0.5421323 -0.17667171 0.06539023 -0.08760936 0.034195364 -0.32680458 0.22479308 0.26586807 0.16227904 0.1852811 0.28462952 0.57280594 0.15828101 0.14590226 0.08165525 0.3217626 -0.005263537 -0.20548157 0.06498866 -0.2792151 -0.27224535 -0.40514132 -0.38273278 -0.16247196 -0.055835675 -0.4237998 0.12174991 -0.34251592 0.42109084 0.15306696 -0.032518007 -0.23379517 -0.036166523 0.5635514 0.51086414 -0.49246296 -0.19786645 0.54061294 -0.23287344 -0.18619788 -0.053108543 0.3872695 0.18781672 0.01392378 -0.25215417 0.18494976 -0.34617016 0.34883818 0.38277626 0.095542744 0.58054733 0.25045702 -0.58372855 -0.088611156 0.09314529 0.31423172 0.047771085 -0.3871959 -0.26429722 0.32303295 -0.07419135 -0.096373916 0.32556224 0.23434258 -0.17931537 0.029770467 -0.29053017 -0.24447757 -0.17070141 0.26587918 -0.3923985 -0.3022362 0.31420895 0.22860298 0.5357063 -0.11165058 0.078944795 -0.38437316 -0.46592098 -0.46022478 -0.11377998 0.51404047 -0.30474254 0.0029741628 0.23123412 -0.7530581 0.014870165 -0.035628602 -0.40698108 0.046396434 0.23036027 -0.43502423
78 -0.3419178 -0.16410126 -0.20712344 -0.18335795 0.37504235 -0.30953982 -0.07924297 0.1513005 -0.5064694 -0.27207717 0.080949776 -0.0683614 -0.5981627 -0.12758371 -0.06599365 0.027820662 -0.018944182 0.13732272 0.071773045 0.15282583 0.2856051 -0.1430165 -0.17038214 -0.29559737 -0.039599534 -0.8728809 0.076332524 -0.009291262 -0.028427785 0.46301663 -0.09957966 0.023180649 -0.61338997 -0.025594108 0.052668374 -0.1319264 -0.14155197 0.18585174 -0.3158052 -0.6240869 -0.51761514 0.20178309 0.3435889 -0.12480839 -0.26856077 0.30238882 0.39498878 0.4013222 -0.20649266 -0.41114536 0.17499366 0.039971244 0.08677624 0.07914433 -0.0078488905 0.21264386 -0.088631734 -0.19783127 -0.5636436 -0.5994718 -0.046193033 0.06554507 0.28420645 -0.1884216 -0.70833296 0.33647043 -0.5846085 -0.11158093 -0.49239796 0.20218556 -0.071288474 -0.39643407 0.045982517 0.33709198 -0.61083823 0.0211378 0.54894286 -0.045502517 -0.09343041 0.11000445 0.41096014 0.23730485 -0.6282067 0.3806493 0.63905185 -0.39534035 0.18369333 -0.298834 -0.0137644205 -0.4435607 -0.60480195 0.17508581 -0.15305713 -0.19153513 -0.8353433 -0.5063338 -0.21967229 0.45985225 0.24239473 -0.23974153 0.04171505 0.42787677 0.11404757 0.341341 0.15811142 0.8485493 -0.733109 -0.27877927 -0.61676466 0.6134249 0.4057902 0.05801611 -0.039428893 -0.64110607 0.29733562 -0.15167235 0.16918209 -0.0017281928 0.29746348 0.107320145 0.356304 -0.48373166 -0.0936067 -0.4849684 -0.29094854 -0.30935252 0.28849617 -0.035054527
38 0.05252532 0.11777632 0.3191934 0.32413623 -0.3718987 -0.214779 0.5664773 -0.14469865 -0.05469728 0.058512237 -0.040460482 0.04345092 -0.31349012 -0.27893862 0.24331887 0.055811368 -0.109856784 0.15706486 0.07860669 0.12437625 0.058967505 0.3188187 0.03458237 -0.07586654 0.64148605 -0.44705713 -0.32366577 -0.4060266 0.3880419 -0.16082048 0.5335054 0.31973973 -0.5034197 -0.51504284 -0.20763323 0.3109945 0.0396467 -0.09151654 0.036746517 -0.44389227 0.4206659 -0.010824068 0.34281346 -0.45224893 -0.836307 0.26287845 -0.15420413 0.2047694 0.4975567 -0.6099293 -0.8619818 0.23662831 -0.30118257 0.022537088 -0.07961461 0.29828638 0.53003585 -0.40994433 0.0812179 -0.59865123 0.36036488 0.4593895 1.029178 -0.1409981 -0.44212326 0.36676925 -0.48238462 0.10838115 0.06643501 -0.26625997 0.22427155 -0.23841158 -0.2936813 0.6556424 -0.16293542 -0.40776312 -0.0067517688 -0.40701047 0.20579714 0.10787728 0.10827037 0.26498136 -0.40831995 -0.06976326 -0.40362784 -0.06149877 0.4211001 0.13480745 0.015700912 -0.88854545 0.07242196 0.8032667 -0.10076306 -0.5080028 -0.33956128 -0.07404884 -0.18031462 -0.106574126 0.55629736 0.04811484 0.36904776 0.3821392 -0.30157828 0.2912656 0.5547018 0.3093564 -0.5013356 -0.13168034 0.41053155 -0.02504395 0.16976905 -0.2971031 0.35474735 -0.120142125 0.06251704 -0.44458273 0.6279361 -0.4492398 -0.3671291 -0.29356867 -0.12914334 -0.15476474 -0.4556897 0.03606438 -0.5702484 -0.5299355 -0.20019558 -0.13459316
81 0.25637195 0.3522936 -0.23960759 -0.47805652 0.115019016 -0.38826877 0.49860707 -0.3622904 -0.25429344 -0.12488819 -0.111714154 -0.05353981 -0.38099077 -0.44517484 0.11123218 0.12953936 0.5789671 0.57773566 0.11422431 0.2613144 0.78406936 -0.13345973 -0.20951574 0.097858384 -0.20984206 -0.33710402 0.083824664 -0.013232253 -0.06357243 -0.12053814 0.20679581 -0.16337603 -0.6283798 -0.11313982 -0.04026798 -0.17039992 -0.28623676 -0.18460791 -0.4988759 -0.7262224 0.029917045 -0.2098044 -0.14530736 -0.08186193 0.54441905 0.14200942 -0.0038085012 0.2513054 0.07563314 0.26213226 -0.29489157 0.6324052 0.1464183 0.1582874 0.09737455 0.16942239 0.44332436 -0.38132787 -0.27038455 0.08005538 0.36824608 -0.1811072 0.20498948 0.5822112 -0.8231395 0.4684314 -0.16589534 0.4386428 -0.4505893 0.10459974 -0.045248542 0.5479259 -0.055427257 0.2499412 -0.1549174 0.20348929 -0.031581987 -0.19051322 0.21075846 -0.1578887 0.16792862 0.058641568 -0.34777656 1.0625075 0.25515875 -0.21061376 -0.20588906 -0.24847989 -0.512017 -0.7009731 -0.12618981 0.7070086 -0.12659222 0.11538667 -0.6986344 0.06197359 -0.49110356 0.17170604 -0.09067714 -0.3180721 0.22527887 0.12789653 -0.74270463 0.33406356 0.1694956 0.21228623 -0.29678065 0.4543367 0.084695876 -0.10047576 0.36133596 -0.016951753 -0.10433806 -0.64456314 0.31419215 0.47279868 -0.38693565 -0.30143762 -0.083753385 -0.26882273 0.941179 0.001651174 0.10200544 -0.2028777 -0.39092332 -0.06920683 0.32040417 -0.1615759
1032 0.029871015 -0.032442942 -0.1188356 -0.12775193 0.19359514 -0.24858026 0.21041843 -0.026159156 0.038315378 0.05678594 0.35349813 0.05173855 -0.524334 0.2666217 0.33580032 0.1945639 -0.18014216 0.18374866 0.015661782 -0.10377716 -0.20405197 -0.31696364 -0.035566032 -0.28933346 -0.21646695 -0.4567365 -0.16590972 -0.28310642 -0.03933371 0.53616285 -0.39214972 0.03057987 -0.38612965 -0.39549908 -0.12576002 -0.42314342 -0.04374168 0.11912393 -0.4418976 -0.28708792 -0.1015507 0.02660856 0.21661802 0.051593382 0.25579602 0.2543313 -0.29043838 0.00106437 0.15831138 -0.17701729 -0.19839545 0.28787124 -0.18731695 -0.14641987 0.3334193 -0.0635792 -0.28682998 -0.1882295 -0.10289923 0.1589376 -0.066064894 0.09188994 -0.25590682 -0.28534937 0.014042125 0.5533053 -0.18112825 0.24628703 -0.029215021 0.3872777 -0.019268636 0.35915902 -0.17899716 0.5612709 0.041155677 0.10052144 -0.05052456 -0.21852607 0.013540671 -0.2752853 0.08833854 -0.59581286 -0.2828589 0.52530164 -0.34637406 -0.36934862 -0.25323644 0.16640285 -0.301936 -0.67017007 -0.42665163 -0.41933626 0.27427426 -0.14314981 -0.08375759 0.45961118 -0.5255534 -0.04367285 0.011200239 -0.33105952 0.5312866 0.5024597 -0.2989605 0.046570737 0.23875667 -0.22988734 -0.4720563 0.0733924 -0.21202247 0.19190782 0.24574251 0.13147354 -0.23624277 -0.22716944 0.030847942 -0.28582105 0.12483384 0.09924037 0.15594575 0.14892657 0.4522362 0.047670435 0.002471584 -0.28450474 -0.51546156 -0.40228498 0.0773996 0.0017727441
30 -0.26954436 0.31981015 -0.6458981 -0.43317696 -0.59453803 0.080350965 0.5598539 -0.1321871 0.2389697 0.012264367 -0.17804632 0.8655335 -0.033015925 -0.40206772 0.38817045 -0.102423735 0.50407696 0.041937638 0.0036502313 -0.43912497 -0.11387555 0.48494714 -0.084659524 -0.6335906 -0.20736639 -0.0038114204 -0.0065495083 0.11354277 0.24370922 0.049220152 -0.15775864 -0.22308668 -0.13798277 0.048393227 0.40286592 0.21144502 -0.13857713 0.0018868204 -0.22200137 -0.038281202 0.10353507 -0.33571133 0.58767074 0.12414689 0.24630108 0.37573063 0.68877774 1.0499055 0.37707928 0.62009084 -0.44604316 -0.30552858 0.3064948 -0.28752828 0.44348294 0.11795868 -0.034485016 -0.36404157 -0.9697868 0.03295489 0.33749768 -0.25861263 0.9082664 -0.28767347 0.33215916 0.2309117 0.082488485 -0.11424477 0.0062495833 0.22053611 0.6114438 -0.21203013 -0.106113054 0.07092358 -0.1770912 -0.482109 0.24441418 -0.07175223 -0.0015836651 -0.113740295 0.5715302 -0.27587616 0.13484184 1.1553967 -0.24766572 0.37661794 -0.50625765 -0.09515897 0.03204085 -0.5286611 0.39301303 0.100828424 -0.476519 -0.47781578 -0.40818238 0.61933833 -0.11921974 0.072655715 0.3098292 -0.37645963 0.271273 0.18637305 0.32968637 0.015576651 0.31792367 -0.4394495 0.124015205 -0.230868 0.2791381 -0.27643096 0.45674062 -0.051889084 -0.41241568 0.10877926 -0.53457254 0.38667956 -0.31292132 0.04508463 0.0067191706 0.4394719 0.67858034 -0.115020804 -0.24147695 -0.43306756 -0.15152374 0.14278136 0.0046802675 -0.052650034
101 -0.07750499 -0.07850038 -0.5800565 -0.2676998 0.556729 -0.01708729 -0.05043129 -0.16241926 -0.046161074 -0.38085726 0.1397873 0.090416804 -0.706196 -0.046497803 -0.4007521 0.34909618 -0.35410872 0.24153504 0.14681864 0.27380303 -0.34413964 0.5632727 -0.3075775 -0.32581732 -0.59077567 -0.6501871 -0.28758344 -0.29444972 -0.13174538 0.10600462 -0.15469375 0.17873162 -0.7974755 0.074579015 0.35664746 -0.13325335 -0.10226769 0.14402363 0.012568202 -0.08007819 -0.33230063 0.11755675 0.31574005 -0.37321433 0.10341304 0.56697685 0.49219704 0.81514657 0.032322306 0.3158526 -0.29388243 0.30096933 -0.6461814 0.34983715 -0.261435 -0.0005986461 0.25368646 -0.37844163 -0.34943706 -0.031413194 0.052859727 -0.5073417 0.050070815 -0.3070129 0.56251365 -0.09698248 -0.06026233 0.0015368814 -0.6237457 0.446463 -0.29927438 -0.20826666 0.33997023 0.32243317 0.1501943 0.056520507 -0.31201625 -0.15186545 0.32469684 0.07241028 0.075195916 -0.48827347 -0.44723666 0.44451874 0.2340052 0.17146191 -0.18525685 0.059488688 -0.38759595 -0.5756718 -0.05087144 0.17004989 0.22205266 -0.5508788 -0.68742704 0.027152903 -0.45986494 0.39296824 -0.25564727 0.42829967 0.113405816 0.2842212 -0.19845814 -0.33211553 0.3198445 0.039167892 -0.27315536 0.12323174 0.07828701 0.3701363 0.31911007 -0.31170988 -0.33556473 -0.20712678 -0.40953875 -0.44959024 0.044758167 0.07126292 -0.1914188 -0.18573007 0.87105584 -0.40331057 -0.34627742 0.14676714 -0.17006432 0.10186124 0.2896732 -0.13885416
518 0.38739684 0.012755823 0.25869414 -0.28690267 -0.09672319 -0.09370279 0.40432212 0.23089002 -0.5279379 0.29408544 -0.4464131 0.035195664 -0.2694617 0.44129533 0.07596187 0.04556344 0.296526 -0.07416183 -0.14396329 0.66019684 -0.1754968 -0.16004133 -0.48967236 0.30833018 0.4510132 -0.37286052 -0.4839329 -0.26701173 0.025417576 -0.043463387 0.080794856 0.02494125 -0.74909276 0.1821386 -0.016448414 -0.14354336 0.05413026 -0.06461855 -0.37258017 -0.871044 -0.010449615 -0.079776384 0.30239022 -0.012235195 0.09062332 -0.31351343 0.44981647 0.8259264 -0.07094374 -0.26772076 -0.5291266 0.19117731 -0.39528343 -0.1362237 -0.23520349 -0.081124 0.22805163 -0.65954304 -0.32736415 -0.40336278 0.040266573 -0.27829674 0.043235455 -0.17250717 -0.11782033 -0.21595569 -0.045557648 0.1261672 0.22485313 0.3345568 -0.15145174 -0.29401967 -0.15212514 0.404668 -0.06959643 -0.61754507 -0.104915544 0.28973985 0.12217485 0.4353924 -0.41669524 -0.6465476 -0.25411144 -0.02646359 0.17862271 0.24611963 -0.00080706767 0.30704996 -0.6080672 -0.22156112 0.11804515 0.3874202 0.44920832 -0.33795765 -0.4938038 0.2049285 0.06710054 0.2096886 0.14439152 0.029740687 0.23974153 0.27496964 -0.08060738 0.58667827 0.23331082 0.16394329 0.16779467 -0.14946924 0.11595856 0.16067308 0.26914147 -0.13683781 0.18554641 -0.23510171 0.18727976 0.43481418 0.26475802 0.004526138 -0.55906063 -0.035323944 0.19099085 0.035504695 -0.5710862 -0.19082098 -0.7243828 -0.43136263 0.15167797 -0.47118795
839 0.29384485 0.14239053 -0.11379143 -0.68937165 0.27365157 -0.31397358 0.12768152 0.35800126 0.24124718 0.34555784 -0.14079571 0.34187427 -0.60068595 -0.34317726 -0.20575877 0.23878722 -0.076642014 -0.09481981 0.04649972 0.1245768 -0.19201423 0.26392952 -0.1572308 -0.46167484 0.43162647 -0.55851775 -0.09846536 -0.08008133 0.3157895 0.024022574 0.1977725 -0.018470464 -0.5480211 0.033756636 0.20610179 0.4197724 -0.010725071 0.04292042 0.108137704 -0.53125095 0.18195742 0.04854384 0.24853629 -0.1778042 -0.2108236 0.76599383 0.1728762 0.4997803 0.45060667 -0.15131772 -0.4046421 -0.076912805 0.018638989 -0.43410236 0.25167176 0.29939535 0.100071914 -0.73622847 -0.7215704 -0.46535638 0.06006928 -0.35669857 0.594559 -0.55024743 0.010451787 -0.01957939 -0.30955663 -0.5423839 -0.2800551 0.4587143 0.53740686 -0.031455614 0.2580792 0.1377206 -0.45964563 -0.25109845 -0.07007773 0.33867398 0.47347033 -0.123613976 0.22706239 0.09094025 0.00013300148 0.67547524 -0.21644445 0.07300327 -0.006029404 0.33067447 0.05525065 -0.23810391 0.12815322 0.51135445 -0.7811986 -0.7455411 -0.68071616 0.12224445 -0.48949912 0.28412858 0.014870383 -0.039954983 0.15115015 0.13113767 0.043684185 0.037146147 -0.17621078 0.3204257 -0.11884682 -0.043753795 0.26368278 0.018955864 -0.036145855 0.14477481 -0.09860162 -0.2806067 -0.3439742 0.021292705 -0.08978862 -0.032655947 -0.10319923 -0.075177856 0.08720959 -0.7080307 -0.22394904 -0.31816244 -0.51474535 -0.028595673 -0.26394132 -0.11582585
148 0.33987436 -0.15942761 -0.54842335 0.020476565 0.2077083 0.007706715 0.02373558 0.3925541 -0.17441377 0.23864456 0.060151193 -0.25101408 -0.47810826 -0.33360058 -0.02425451 0.011218304 -0.1278833 -0.40860036 0.02722073 0.06652358 0.0074074366 0.4823843 -0.027867567 -0.30156854 -0.27217475 -0.12635405 -0.01896783 -0.5937225 0.34735343 0.0730318 0.26202914 0.21766168 -0.31967735 -0.065885484 0.11839284 0.02127002 -0.41977882 0.06718516 0.121884145 0.012328936 0.07282954 -0.2211758 0.35083967 0.0025229405 0.059958044 0.5061115 0.23174241 0.5839183 0.21347463 0.1906036 0.062087733 0.16396111 0.051077023 0.19095676 0.110424355 -0.051473755 -0.27619937 -0.14669879 -0.35569915 -0.19020578 -0.0052209045 -0.24389406 0.5621466 -0.4591405 0.35720953 0.25745037 -0.16513461 -0.34056842 -0.31538913 0.3513949 0.47450706 -0.46673608 -0.03410484 0.24906978 -0.17501007 0.06873146 -0.29101285 0.41114488 0.26203436 -0.2122793 0.07158518 0.16148572 -0.294342 0.31294972 0.26623884 0.12511612 0.49129415 0.24181643 -0.31054214 -0.41037408 0.17794684 0.10998903 -0.0032095688 -0.6447932 -0.28965807 0.23967586 -0.13795052 -0.004904615 0.24719511 0.124309525 -0.21798883 0.044341866 0.009452712 -0.14975122 -0.15469891 0.14416115 -0.4080701 -0.09399837 0.27654472 0.2679651 0.62301534 -0.30412403 -0.09183218 -0.24061762 -0.42595452 -0.77740085 -0.091302805 0.3284427 -0.2377429 0.2576242 0.24474871 -0.8647877 0.12018597 0.1259122 -0.46701357 0.17133088 0.09288862 -0.1572215
866 0.6516189 0.16487014 0.3531987 -0.12634146 -0.07546151 -0.6003601 -0.03631423 0.079192795 -0.30649355 0.33938366 -0.16381346 -0.079428226 0.19094202 0.18800892 0.06673818 0.43606052 -0.40673098 -0.35250562 -0.018721027 -0.043255102 -0.28426513 -0.6176383 0.061164495 -0.20322898 0.079246625 -0.3155125 -0.21537864 -0.38466388 -0.011549226 0.56739897 0.3104639 -0.12933551 -0.57146096 -0.030727224 0.2704435 0.27739468 -0.09780538 -0.25861403 -0.04868528 -0.4815461 0.17251751 -0.14285387 0.45892 -0.357219 0.12039138 0.08427378 0.29152802 0.9386593 0.23177579 -0.38820142 0.2639315 0.50200784 -0.1421115 0.38654968 0.5097803 0.23859185 0.07108925 -0.036866557 0.030555902 -0.10687518 -0.06336883 0.5127031 0.63672805 0.20810223 0.048388477 0.061422523 -0.027056204 0.0052540274 0.10058438 0.3354893 0.4787545 0.3181066 0.16123776 0.4130118 -0.3986169 -0.3414572 -0.19423145 0.22591567 0.461077 0.24986647 0.040158372 -0.6912668 0.40262046 -0.35922077 -0.0065810615 -0.39815435 -0.15068385 0.7023092 -0.06439698 -0.6616188 -0.075895116 -0.02240669 0.026436564 -0.94480634 -0.7469922 0.85087925 -0.3599206 -0.18495682 0.30796164 -0.032337107 0.12194863 0.85104245 -0.22558032 0.050688423 -0.4453451 0.55842143 -0.1628126 0.06316498 0.43244976 0.040567216 0.10062601 0.3826075 0.30301034 -0.21106996 -0.28670818 -0.234798 -0.057178363 0.28745142 -0.25983095 0.45975846 -0.07936077 -0.17163703 0.42925122 -0.31669313 -0.90429306 -0.46986148 0.28777638 -0.14128403
612 -0.107323624 -0.15273324 0.12268318 0.12342717 -0.23444623 -0.44247353 0.3219442 -0.1757595 -0.47572145 -0.21621759 0.10118763 0.02709224 -0.57358485 -0.20851313 0.2766095 -0.05727964 -0.25870648 0.3722837 0.11453851 0.41346562 -0.3291731 0.45483848 -0.15224564 0.022746464 0.1858866 -0.40213987 -0.59602946 -0.47497004 0.20436744 0.013753052 0.14157078 0.19167458 -0.61754227 -0.43875402 0.18683134 0.20669661 0.27528855 0.07223985 -0.70694184 -0.13188127 0.21254708 0.1383784 -0.28093413 -0.55978215 -0.3351261 0.004577132 0.0020999217 0.62122726 0.5407462 -0.39452055 -0.62054133 -0.16520369 -0.05224177 0.42126277 -0.05862421 0.14742433 0.2219238 -0.40083122 0.17354889 -0.4144382 0.14911368 0.32788542 0.87380236 0.28098363 -0.22920848 0.70295656 -0.44327804 -0.1012612 -0.3884406 -0.14346425 0.32874316 -0.13164845 0.16679089 0.6100048 0.22528653 -0.35727245 0.12519942 -0.16395642 0.49092373 -0.22503455 -0.0045218235 0.060854457 -0.10099612 0.011083827 -0.05632535 -0.3695634 0.372257 0.34013996 -0.26010525 -0.97264564 -0.12873265 0.19779186 0.061845105 -0.47971293 -0.56391126 -0.010911168 -0.33516246 -0.042981364 0.60542256 -0.4586438 0.043947376 0.38466883 -0.70938724 0.042435974 -0.14375952 0.31913683 0.0030842638 0.21367167 0.1198985 0.12170512 0.3834433 -0.38400695 0.14422911 -0.11351632 -0.33641 -0.046434272 0.023740277 -0.20866142 -0.11794523 0.21271774 0.51781374 -0.2258313 -0.10147562 -0.06211616 -0.4430268 -0.3349325 0.2277136 0.07583354
509 0.4641518 0.09301602 0.07778575 -0.23037404 -0.12459403 -0.0938653 0.3763061 0.26404598 -0.55766743 0.32441515 -0.32923657 -0.17005105 -0.1872564 0.11719591 -0.09608369 0.107235126 0.35304746 -0.09722295 -0.09253914 0.527643 -0.076014906 0.047194134 -0.35686845 0.081621386 0.34933648 -0.15733506 -0.30042556 -0.42417088 0.16684465 -0.07137995 0.2091926 -0.034289174 -0.59423554 0.22227734 0.061781917 -0.26903152 -0.20765747 -0.020936511 -0.12329675 -0.61233443 0.017621249 -0.13072212 0.2785152 0.08167759 -0.016485333 -0.11787205 0.5464596 0.8737748 -0.130882 -0.23288827 -0.37088594 0.20718785 -0.37879705 -0.095524326 -0.28221467 -0.024675382 -0.016954197 -0.5920513 -0.33694008 -0.36634097 0.11139281 -0.21472709 -0.03459181 -0.14578523 -0.16638818 -0.086797334 -0.062961616 0.05173812 0.011902673 0.36762464 0.038397238 -0.38894346 -0.22127178 0.36873004 -0.09524148 -0.49521908 0.010246786 0.27957627 0.031312704 0.40015322 -0.431516 -0.4054551 -0.39706635 0.014326199 0.3750637 0.12972407 0.19825406 0.28871757 -0.523918 -0.076127104 0.10959128 0.47069696 0.29269698 -0.29852888 -0.46691486 0.23701708 0.093460806 0.20932212 0.19795671 0.09001865 0.20053467 0.23915575 -0.08146612 0.3086412 0.11797375 0.20618923 -0.07762124 -0.14038287 0.12291832 0.1878849 0.328884 -0.08675394 0.16366807 -0.2723764 0.076297574 0.086306475 0.31223464 0.18012352 -0.4678901 0.01602697 0.15006855 -0.19891252 -0.41138062 -0.16636132 -0.52849114 -0.39302772 0.1768061 -0.57099974
519 0.2765536 0.13777351 -0.10809268 -0.62970537 0.18129806 -0.30635858 0.09378726 0.2766027 0.20271161 0.3905493 -0.11965771 0.32169616 -0.5943709 -0.32135466 -0.13576463 0.24264786 -0.103466555 -0.14030136 0.09687504 0.12830226 -0.22949411 0.18100628 -0.16606334 -0.49589366 0.40120572 -0.5308065 -0.085888185 -0.077562965 0.22139125 -0.022927834 0.16703549 0.024767518 -0.50110346 0.035466827 0.18017244 0.45666307 0.03887214 -0.075650506 0.12308353 -0.4758797 0.17636229 0.014364189 0.24549167 -0.15506643 -0.16830961 0.7548168 0.06547727 0.59069663 0.50687057 -0.17893526 -0.4445644 -0.10858242 0.03722916 -0.45719022 0.31962496 0.32945794 0.0054403525 -0.7129824 -0.6722751 -0.48255 0.115878545 -0.29215315 0.65971273 -0.5662622 0.05469473 -0.0341832 -0.26822612 -0.6338514 -0.27895468 0.4535353 0.4618319 0.028637016 0.2828154 0.060559217 -0.46105617 -0.18715915 -0.112493604 0.3499212 0.4757493 -0.15166523 0.29464123 0.030154055 0.09468971 0.63470644 -0.33798572 0.045010414 -0.051144626 0.34438258 0.05432045 -0.27330333 0.2152169 0.40425444 -0.7093071 -0.68909556 -0.7034354 0.19124575 -0.4300048 0.2885549 -0.017212318 -0.09667627 0.17983836 0.09679579 0.0777595 0.08858877 -0.19860971 0.27758875 -0.16066478 -0.045725513 0.22552171 -0.062418096 -0.045440257 0.1407589 -0.13070206 -0.25061634 -0.37450084 0.11876745 -0.11853932 -0.04731155 -0.07496311 -0.09372037 0.056356415 -0.6182709 -0.2764314 -0.3824215 -0.52569735 -0.02558568 -0.24831092 -0.115240015
547 0.3013111 0.18918806 -0.08519466 -0.6445768 0.17035946 -0.32268816 0.12984262 0.30475244 0.20300707 0.42024466 -0.12345093 0.33126366 -0.5849424 -0.35512704 -0.12900968 0.2488865 -0.08094042 -0.16234666 0.10173248 0.0869652 -0.19302623 0.094896324 -0.1105803 -0.47569174 0.4718231 -0.52237874 -0.074387744 -0.08791101 0.25783294 0.012512539 0.22469552 0.005160659 -0.4825909 -0.008492215 0.1227242 0.44835088 0.004544753 -0.074165225 0.12563048 -0.54566246 0.19430235 0.0043870006 0.2406522 -0.1610134 -0.21252306 0.7726163 0.047299765 0.5354074 0.5289169 -0.23636612 -0.44202805 -0.07198811 0.05945057 -0.4623127 0.32922903 0.35092703 -0.019861221 -0.7103786 -0.68202347 -0.4754861 0.11605158 -0.253081 0.6626242 -0.58271676 -0.031869832 0.038849805 -0.26200533 -0.6399725 -0.24458392 0.4788361 0.51842326 0.07100498 0.25074524 0.10779735 -0.5001958 -0.2083406 -0.0749742 0.33985096 0.46343055 -0.17623244 0.2763718 0.046416376 0.05933735 0.6797865 -0.31184635 0.02306819 -0.02128549 0.34440842 0.028365077 -0.28097522 0.18567601 0.42055255 -0.739605 -0.7021634 -0.640734 0.20612904 -0.46415102 0.27862027 0.02520633 -0.117823265 0.19818065 0.10699337 0.045736037 0.08408309 -0.18568103 0.3190547 -0.22986706 -0.045651335 0.25489017 -0.030521397 -0.042809587 0.16699359 -0.09936126 -0.23985532 -0.32494432 0.09385838 -0.1393085 -0.010515472 -0.07363949 -0.06906737 0.010783681 -0.6520206 -0.26564622 -0.34905398 -0.54704374 -0.07773439 -0.25959396 -0.09049148
522 0.22454575 0.13034761 -0.10774274 -0.5636631 0.18143883 -0.42697245 0.09241981 0.21710223 0.10492468 0.4083148 -0.20954807 0.24938591 -0.45280787 -0.2519178 -0.084840104 0.2157929 -0.070602916 -0.035110302 -0.071378686 0.16920808 -0.047998853 0.19938648 -0.08838885 -0.41175246 0.5937348 -0.39028952 0.02682068 -0.07266857 0.22680587 -0.00968345 0.14069639 0.049651824 -0.50622314 0.0027414165 0.25897455 0.39805678 0.055356774 -0.103005044 0.21799551 -0.64211196 0.082208015 0.07313401 0.32085964 -0.02166148 -0.20942149 0.63839686 -0.05923427 0.55387443 0.52071714 -0.18957898 -0.48588303 -0.14712267 0.21189594 -0.49037394 0.34705555 0.38310945 -0.06359783 -0.63605416 -0.76110065 -0.39313814 0.101760395 -0.3132185 0.583549 -0.5627798 0.05085642 -0.06727688 -0.29163718 -0.5874505 -0.16638568 0.47692654 0.44480413 0.14110847 0.27406728 -0.01207212 -0.61541677 -0.20710334 -0.086176425 0.43839645 0.28278044 -0.11276652 0.34140465 -0.059116878 -0.024732023 0.76203525 -0.28670245 -0.005602642 0.010553106 0.36979336 -0.09494705 -0.2008816 0.216939 0.26534557 -0.6504382 -0.5474081 -0.68202245 0.24905674 -0.5562996 0.25924096 0.05311679 -0.25857547 0.18574525 -0.04184324 0.16050935 0.077337764 -0.29488212 0.28407156 -0.22500303 -0.15323025 0.14590894 0.06559325 -0.13496806 0.16988936 -0.103907034 -0.31244212 -0.10515822 0.040269442 -0.22011892 0.17036836 -0.0036141144 -0.07897166 0.047490202 -0.68665445 -0.30830154 -0.43103233 -0.5359255 -0.18673778 -0.17647514 0.08073693
165 -0.1878077 0.121927105 -0.3448078 -0.37395945 -0.1643815 -0.086447425 0.48864064 -0.6438732 -0.2498436 -0.024278011 -0.29360223 0.24390034 0.21997967 -0.4869994 0.199577 -0.020417126 0.47203052 -0.1015191 -0.4984827 0.011502713 -0.07421562 0.10216239 -0.2672063 -0.20834444 -0.88272345 0.25039017 0.16810235 -0.15829775 -0.35944712 -0.5636966 0.22633062 -7.254772e-05 -0.43188348 -0.23224697 0.1759851 0.37483263 -0.23789209 0.2474115 -0.3454054 -0.58875316 0.29666343 -0.08980897 0.35400203 0.20958641 0.5365937 0.13062738 0.22881868 0.65242755 -0.21740387 0.40457278 0.28955954 0.07214786 0.035028704 -0.03751113 0.0014261375 -0.39548168 0.07379501 -0.37374628 -0.154658 -0.21099608 0.028053338 0.040572017 0.35031483 -0.36295852 -0.118926205 0.5699154 0.11499136 0.14444594 -0.34890267 0.042175025 0.47269323 -0.010924917 0.08038149 0.3887839 -0.35518625 -0.16611716 0.09322069 -0.008495286 -0.18062371 -0.5675128 0.31981552 -0.5696502 -0.18726707 0.39547414 -0.14529309 -0.22328009 -0.6687248 0.4270756 -0.22296116 -0.7887526 -0.26028693 0.38944593 -0.080599286 -0.5226688 -0.019575616 0.9630986 -0.3098187 -0.32987747 0.63779205 -0.07531855 -0.011308669 0.10405463 -0.5027963 0.7209211 0.6120308 0.023355067 -0.015023273 -0.07554912 0.15495363 0.14629976 0.08731177 -0.14038135 0.21555856 -0.3145444 -0.3701731 0.37785208 -0.31534708 0.13040724 -0.30399734 0.62535375 0.86948067 0.1586955 -0.44632804 -0.86587113 -0.27563938 0.26642394 0.23528075 -0.52718234
713 0.2804591 0.16297637 -0.08012879 -0.6570241 0.19030301 -0.31500697 0.10241008 0.32460088 0.19245109 0.41809484 -0.12083337 0.29955903 -0.5814564 -0.3124739 -0.12739004 0.23332517 -0.083655685 -0.13988677 0.08253626 0.14561805 -0.17198154 0.07976345 -0.14807674 -0.4796089 0.48402902 -0.54260164 -0.07010151 -0.053516034 0.22010414 -0.011434344 0.18272595 0.011881552 -0.5036238 0.01400751 0.15958518 0.42273048 0.034592632 -0.06418729 0.09718852 -0.5763645 0.1818826 0.026600318 0.2453019 -0.16039306 -0.17982745 0.7762435 0.055986203 0.5126384 0.5206031 -0.236695 -0.4157012 -0.094606854 0.047957256 -0.47311184 0.31731868 0.36741206 -0.03376551 -0.6992443 -0.6705947 -0.4951938 0.12193522 -0.25158212 0.64028573 -0.6042924 -0.039675485 0.012081253 -0.254178 -0.61632603 -0.26776892 0.4843003 0.49618992 0.075145684 0.29168618 0.084586404 -0.509035 -0.21112567 -0.06878397 0.3395783 0.45599797 -0.17383333 0.27961922 7.692685e-05 0.08138097 0.6690221 -0.31382203 0.025148565 -0.043099012 0.3255837 0.008967819 -0.25103095 0.1695971 0.38239688 -0.7383588 -0.6567706 -0.6782448 0.18237437 -0.4561098 0.28131753 -0.0024888322 -0.13277206 0.2009809 0.06689727 0.050838947 0.10863383 -0.19329913 0.33655646 -0.18705988 -0.036084604 0.20036677 -0.014019528 -0.03843689 0.1586194 -0.097091034 -0.26594564 -0.26327646 0.117281154 -0.13570964 -0.040247377 -0.023620188 -0.08720352 0.022369428 -0.62367475 -0.28245208 -0.356159 -0.53902763 -0.09459288 -0.24505907 -0.06353517
937 0.4211711 0.06751902 0.28156158 -0.29990658 -0.13573347 -0.11720433 0.4109956 0.22944085 -0.50951654 0.35699585 -0.46149597 -0.0045514726 -0.27536234 0.4126069 0.105552934 0.059444517 0.3170585 -0.08412242 -0.13199796 0.6403916 -0.13339193 -0.18158628 -0.4665114 0.31338716 0.47040322 -0.3646302 -0.44084352 -0.26183438 0.051292133 -0.009636699 0.066433996 0.02804572 -0.7058482 0.14399385 -0.012190825 -0.14563783 0.02721788 -0.05686225 -0.35172296 -0.8735284 -0.041049145 -0.119668365 0.34391963 -0.004590971 0.06483643 -0.28535435 0.41946718 0.7978987 -0.08120816 -0.29205188 -0.5068622 0.23654798 -0.36872306 -0.1438374 -0.2220813 -0.069450565 0.20060661 -0.66117316 -0.32879925 -0.4073865 0.040040873 -0.24132687 0.00410545 -0.174525 -0.12273683 -0.18985865 -0.059224963 0.1180305 0.24367836 0.36718482 -0.14604989 -0.2872254 -0.19576818 0.39869696 -0.1021141 -0.58224887 -0.109172136 0.2781233 0.12615953 0.4331045 -0.4517678 -0.6369416 -0.2391757 0.0055410764 0.1683834 0.23123252 0.009543743 0.30083457 -0.61541975 -0.23500119 0.11133656 0.35986546 0.43368247 -0.3178195 -0.4904661 0.2640907 0.036296006 0.20835005 0.14988795 0.03338917 0.28237522 0.3186344 -0.056420278 0.5707692 0.22237797 0.1773199 0.084632345 -0.17242834 0.119854495 0.16030647 0.2586535 -0.13559623 0.20280269 -0.24758796 0.19492118 0.4440264 0.314609 0.031828765 -0.5479622 -0.0237693 0.19355856 -0.0013245351 -0.55090064 -0.18905577 -0.7197044 -0.49400756 0.124687746 -0.4874464
17 0.16513364 0.26511255 0.0794686 0.014599755 0.026937852 -0.40548435 0.25791785 -0.0502093 -0.21354932 -0.23140559 -0.3335173 -0.1198381 -0.012813676 -0.0032008742 0.4705781 0.14701259 0.16230603 0.33886394 -0.29430422 -0.24015044 -0.27458397 0.24501328 0.04307059 -0.14418688 -0.097986825 0.12461113 -0.65573776 -0.030304532 0.0962461 0.44877124 -0.14701897 0.121364914 -0.60721016 -0.5635138 -0.3349552 0.42063758 0.12027395 -0.25923577 -0.5384063 -0.14575039 -0.19326477 -0.2581449 0.26896346 -0.35392657 0.25751084 0.13193336 -0.4455149 -0.0723941 0.40718842 0.40407312 -0.2770796 0.7168637 0.22458592 -0.5568649 0.017404823 -0.2349374 0.7201055 -0.67877585 0.087176 0.2728848 -0.22195624 0.008074607 0.51994115 0.20503463 0.13992809 0.6463675 -0.62808347 0.2760698 0.04333783 -0.01951018 0.62243205 -0.3111597 0.12952887 0.8183104 -0.13819171 -0.3079256 0.48505628 -0.1836999 0.42032996 -0.55148387 -0.4513536 0.3196956 -0.3143319 0.22481254 -0.022608878 -0.25290304 0.18019037 -0.15381818 -0.42168847 -0.6030777 -0.76817167 0.25988 -0.026354635 -0.29024053 -0.4285135 0.20474435 -0.53369987 -0.40629172 0.38627586 0.032194007 0.00649562 0.3762318 -0.99023664 -0.0735043 0.36085895 0.23052408 0.032016825 -0.13030866 0.52740824 0.029083436 -0.13470134 -0.36639252 0.039832827 -0.45723495 -0.6692695 0.37805533 -0.27521878 -0.1692179 -0.050829835 -0.49362916 0.6341835 -0.16509393 0.2541181 0.12691699 -0.35665026 -0.3020397 0.27343062 0.03005445
228 0.33456862 0.11969181 0.20122777 -0.29975563 -0.1307559 -0.0730955 0.40849552 0.22623992 -0.3947189 0.26197776 -0.45767194 0.12511905 -0.264816 0.33476818 -0.024047105 0.098606825 0.363685 0.02206873 -0.17053393 0.57920843 -0.043931793 -0.028369358 -0.40456188 0.23799032 0.50556546 -0.32786575 -0.3623842 -0.24045198 0.08754549 -0.023020001 0.124002635 -0.006392696 -0.6539172 0.13470447 -0.026071424 -0.14262468 -0.029113771 0.009918011 -0.27046883 -0.76934135 0.0015870917 -0.092448 0.33333004 -0.104890406 -0.01998829 -0.15015918 0.47202587 0.78064364 -0.087652385 -0.28898102 -0.49885425 0.15080483 -0.30774358 -0.17941077 -0.23083614 0.11151568 0.24870615 -0.66143847 -0.44088268 -0.46579808 0.15319422 -0.23934607 0.09218759 -0.14199023 -0.3012944 -0.20694129 -0.15552872 0.03882035 0.14563406 0.40110466 -0.032370415 -0.37077975 -0.19120534 0.38207805 -0.18618561 -0.6248215 -0.06782918 0.225315 0.08341438 0.378746 -0.2824385 -0.55037165 -0.28564253 0.08038945 0.22079715 0.22862047 0.026616544 0.28729865 -0.47998586 -0.21610485 0.10885865 0.43916175 0.2808704 -0.33127534 -0.47933486 0.133433 0.004293419 0.28540972 0.12948002 -0.02738106 0.2812472 0.28414974 -0.0050751735 0.45995075 0.22018373 0.19581471 0.105419494 -0.20811537 0.105054714 0.10057797 0.16959295 -0.084113955 0.136234 -0.20812576 0.25556335 0.3864359 0.36469722 0.033925503 -0.44425416 -0.016593166 0.18004562 -0.06262905 -0.59305716 -0.16162421 -0.585516 -0.41250095 0.05956751 -0.3929932
222 0.21926224 0.25440094 -0.04935356 -0.38491723 0.0323408 -0.37417817 0.28288203 0.17537636 0.023265611 0.17643519 -0.016205814 0.13164538 -0.38737765 -0.45855364 -0.20578605 0.16806898 0.072884776 -0.006561155 0.13491932 0.06816793 -0.062846705 0.22445962 -0.007304823 -0.5517935 0.4679803 -0.42497626 0.02459779 -0.20868805 0.28345302 -0.087839 0.33480415 -0.043154694 -0.5383222 -0.04959324 0.08719631 0.39522645 -0.06994215 -0.0063014505 0.25721955 -0.5185004 0.28258985 0.042491227 0.23999211 -0.17839655 -0.4537617 0.6734541 0.1324842 0.5513447 0.31442267 -0.30993608 -0.4754007 -0.074047156 -0.11822528 -0.32395723 0.065543115 0.36328948 0.021336973 -0.5795856 -0.5752005 -0.6100933 0.26778486 -0.00337344 0.72375435 -0.43685058 -0.27854255 0.16872282 -0.33008897 -0.39567703 -0.3511108 0.18880479 0.49119002 -0.13562971 0.058713134 0.21499142 -0.472069 -0.22129053 0.10088742 0.0660646 0.26794168 -0.0206275 0.30647615 0.31699696 -0.21397783 0.49796146 -0.14774208 -0.09573078 0.17095137 0.1458687 0.11547089 -0.41802767 0.1035006 0.6978649 -0.64366007 -0.5406996 -0.61055297 0.015278344 -0.26872438 0.19858709 0.26013115 -0.11169688 0.25727665 0.1636563 0.003155213 0.14430478 0.091777466 0.43223184 -0.4556813 -0.13059348 0.2047933 -0.008411849 0.021608572 0.054587882 0.002752507 -0.31077722 -0.25416026 -0.16665633 0.09897784 -0.124223314 -0.039953228 -0.15376417 -0.023712363 -0.5985647 -0.3385403 -0.3524202 -0.43032116 -0.13658987 -0.22097774 -0.16554295
201 0.034655787 0.11266717 -0.2262055 -0.53828377 -0.006015009 -0.2875221 0.29699516 0.21330822 0.1003911 0.31102538 -0.13274826 0.45108202 -0.46956927 -0.46544936 -0.075994685 0.22837849 0.07435529 -0.12029157 0.052845683 0.031408835 -0.22715415 0.19609684 -0.19976646 -0.55222034 0.33624825 -0.3449784 -0.038837854 -0.05528718 0.11191551 -0.0232365 0.032063935 -0.068919346 -0.52208215 0.13158652 0.2136441 0.30009454 -0.057743758 0.0013851816 0.19585069 -0.5585531 0.11944901 0.012455863 0.36177143 -0.122889124 -0.034621168 0.5443617 0.41686514 0.8487942 0.36187896 -0.018392434 -0.3685749 -0.13535699 -0.03352742 -0.5143856 0.32353905 0.29991427 0.0053648464 -0.5278995 -0.7458238 -0.34443063 0.29248577 -0.23251218 0.74789476 -0.45728353 -0.051741205 -0.03147702 -0.07206241 -0.5418887 -0.44893664 0.3274772 0.61043376 -0.055662192 0.18342972 0.06587182 -0.5122109 -0.2621418 -0.027992308 0.30076408 0.24721739 -0.013168797 0.372629 0.036026213 0.052697908 0.66178346 -0.22363016 0.12058288 -0.2300566 0.096511245 0.047316622 -0.25691056 0.33714142 0.3823477 -0.6748351 -0.6100229 -0.665174 0.22209956 -0.19908062 0.20989783 0.12310867 -0.16960028 0.08342916 0.08485187 0.19511071 0.2335249 -0.04147578 0.2697182 -0.22567195 -0.16274482 0.161216 0.0009856262 0.039854527 0.123423524 -0.18222554 -0.16978699 -0.45084673 0.12903754 -0.16607203 -0.117230885 0.045977097 0.110640354 0.075968295 -0.56292665 -0.22565217 -0.5346473 -0.4959438 0.04353505 -0.09823567 -0.037940636
448 0.038853437 0.21049255 -0.24708855 -0.71826625 0.16340674 -0.21221296 0.1262832 0.16089492 0.1490785 0.1818058 -0.10042517 0.31693876 -0.6218534 -0.35416093 -0.29240033 0.18660903 -0.004625924 0.11543372 -0.0038667866 0.08496342 0.021593984 0.3119833 -0.1223404 -0.4404056 0.3148226 -0.5425537 -0.07743835 -0.16561964 0.12107131 0.14849448 0.19072156 -0.082814276 -0.41618365 -0.1073451 0.22405516 0.14763923 -0.029507693 0.1385789 0.00096119836 -0.4409762 0.25016028 0.12725843 0.08039787 -0.30249473 -0.29027537 0.6962482 0.27885184 0.49838984 0.45676565 -0.10831171 -0.3609426 -0.07902789 0.07987218 -0.1511164 0.14282475 0.4328355 -0.04207407 -0.61860675 -0.66981095 -0.34333393 0.23399349 -0.16241811 0.44604892 -0.2405909 -0.3225502 0.19479184 -0.39525786 -0.506678 -0.48921967 0.47981405 0.43917674 0.18656057 0.15750626 0.09215191 -0.32583994 -0.2208367 0.13337852 0.08759409 0.4271163 -0.26340592 0.24192026 0.03518575 -0.053893097 0.80255365 -0.0048592514 -0.113274954 -0.039296277 0.29748908 0.06371727 -0.34528586 0.105326526 0.4270741 -0.80431616 -0.57941616 -0.5730783 0.06825765 -0.4241761 0.34152833 0.008963527 -0.3393425 0.12323199 0.05177186 -0.070395716 -0.08104693 -0.21267691 0.32621896 -0.18660274 -0.036207635 0.10310162 0.030021466 -0.016902076 0.051915344 -0.17745383 -0.12869681 -0.22066481 -0.029262248 -0.027806265 0.069540866 0.017904524 0.12688372 0.32401517 -0.726601 -0.13125281 -0.19840993 -0.24972767 -0.103973165 -0.15408927 0.11793002
239 0.37410432 0.13450943 0.16219766 -0.31360272 -0.10660413 -0.11204995 0.52656233 0.070016146 -0.4653845 0.18473841 -0.42570025 -0.009120651 -0.23174867 0.22458473 0.04169497 0.06320879 0.4742923 0.12129697 -0.10945779 0.6001313 0.0679805 -0.03353844 -0.44289362 0.32087705 0.32908723 -0.26592302 -0.3616122 -0.21807238 0.04893279 -0.09924061 0.07308041 -0.05556086 -0.7359182 0.1486018 -0.023793183 -0.2024889 -0.07686206 -0.032499094 -0.40252182 -0.78086954 -0.0155003425 -0.15687625 0.18657842 -0.025098111 0.15596373 -0.2500735 0.43126556 0.6969056 -0.09355842 -0.12458937 -0.5296389 0.30660826 -0.29985765 -0.121574834 -0.20361377 -0.06832948 0.3446199 -0.64632267 -0.31453785 -0.3054033 0.12348773 -0.29537395 -0.015656583 0.10386928 -0.3574084 -0.088850886 -0.10741528 0.25418836 0.08881197 0.3319948 -0.091559425 -0.20492285 -0.16106875 0.3816867 -0.057440754 -0.500477 -0.037036266 0.14427996 0.15628825 0.36932853 -0.3550405 -0.441664 -0.3148359 0.19673206 0.24265237 0.15793417 0.0055274116 0.19079009 -0.59784544 -0.35010442 0.052364856 0.59156585 0.32145703 -0.14016111 -0.5318798 0.17210887 -0.091702454 0.20681493 0.1385127 -0.0025418343 0.21170524 0.26206565 -0.31473678 0.47378084 0.21938908 0.22922821 0.12747003 -0.021311207 0.15353462 0.09228958 0.28656054 -0.13574466 0.13717921 -0.3667102 0.23815675 0.53497463 0.21763581 -0.021106223 -0.48406774 -0.1612713 0.428836 0.022983484 -0.43156892 -0.20923202 -0.6005072 -0.38165897 0.22462246 -0.46515954
231 0.30511954 -0.03239253 0.1739257 -0.2107737 -0.002472135 -0.11957386 0.3470975 0.18192686 -0.48493353 0.12417496 -0.3610304 -0.028001461 -0.3536714 0.32952958 0.0020195208 0.115977846 0.18183555 0.021823607 -0.075095944 0.6835172 -0.17379457 -0.005477833 -0.47185928 0.23797673 0.32967395 -0.3997323 -0.4552812 -0.2521406 0.00927786 -0.036088493 0.056785952 0.07633201 -0.769068 0.14638604 0.060390774 -0.13247037 0.029377498 0.0210513 -0.31791744 -0.73046666 -0.099612415 0.018347017 0.27503133 -0.09330145 0.073035516 -0.25446928 0.48608285 0.8390749 -0.11346742 -0.21554591 -0.48998472 0.16989996 -0.45499736 -0.03683929 -0.28108683 -0.07232887 0.2563001 -0.6166795 -0.28179348 -0.3698917 0.054194137 -0.2659191 0.05969754 -0.13743915 -0.08671888 -0.22266524 -0.07445806 0.12794717 0.050803278 0.2697255 -0.20825638 -0.3258116 -0.091859505 0.36218792 -0.00026870868 -0.49927205 -0.1503979 0.22223075 0.099067986 0.4397316 -0.38332057 -0.5823298 -0.29681143 -0.046457317 0.24368228 0.21209 -0.048627127 0.25311917 -0.57576984 -0.22116916 0.04019317 0.36656186 0.45590344 -0.34102237 -0.5687759 0.13405764 0.03451202 0.24281585 0.09316195 0.15217993 0.2001683 0.2810595 -0.059155054 0.45937932 0.2746045 0.16594556 0.09349978 -0.07192554 0.08768211 0.22545364 0.27079922 -0.15013671 0.14667773 -0.21206632 0.0951405 0.2670163 0.29363576 -0.006230194 -0.47436872 -0.07537885 0.27823073 -0.015301526 -0.48284832 -0.13244268 -0.6094942 -0.35355794 0.18537755 -0.41393384
151 0.007428004 -0.33630934 -0.17787507 -0.10294683 0.13404562 -0.44750085 0.119973585 0.17812778 -0.26495802 0.3962908 0.18098554 -0.30519137 -0.3802202 -0.15270111 0.33000568 0.3237391 -0.33056858 -0.018260894 0.00854895 -0.24706581 -0.24480559 -0.14207856 -0.07998819 -0.5691292 -0.15371418 -0.33824238 -0.09666554 -0.447718 0.1566507 0.4331085 -0.0073028766 0.23781487 -0.2655794 -0.13143018 0.24701305 -0.56325465 -0.257524 0.17565623 0.26106024 -0.33187267 -0.19502228 0.1449814 0.4196284 0.15844296 -0.095889755 0.22757392 0.28277928 0.69187343 0.08568552 -0.38159063 0.1379039 0.44974047 -0.28182566 0.026763193 0.36041874 0.098621815 -0.17350535 0.055458017 -0.16289021 -0.04482256 -0.11835301 0.28462666 0.09637848 -0.38812304 -0.16438356 0.07829847 -0.10600901 -0.049123965 -0.39788455 0.2173574 0.17863399 0.12206737 -0.22167209 0.47928828 -0.20940983 -0.11088298 0.104595974 0.20866585 -0.17474377 0.26957384 0.31673843 -0.34006974 -0.32367867 0.036209162 0.018702162 -0.47629648 0.049094517 0.2891087 0.072228484 -0.12648429 -0.34655255 0.11492433 -0.28719953 -0.63819265 -0.8614665 0.44377378 -0.25377217 0.1264711 0.04467612 0.16876318 0.044206057 0.48186967 -0.19765438 0.17295651 -0.03255503 0.52997965 -0.8073656 -0.27716142 -0.09073248 0.33025846 0.21885432 0.66010976 0.1283382 -0.27001935 -0.053242065 -0.7150257 0.2339304 0.2828126 -0.06190213 0.4632258 0.009184569 -0.26145115 0.16321164 -0.70720106 -0.61790013 -0.34585232 0.07985728 -0.29208237
872 0.2817172 -0.010163843 0.29168415 -0.12554285 -0.11436542 -0.0039894595 0.5625079 0.20893906 -0.36543712 0.20420164 -0.450078 0.10144122 -0.18634991 0.23277247 0.072186135 0.020043854 0.32284313 0.030406402 -0.261902 0.5888301 -0.3612141 0.2131247 -0.46666977 0.3686085 0.36303964 -0.13997845 -0.53265136 -0.24346599 0.19528718 -0.029985309 -0.005627462 -0.07535509 -0.78107274 0.187826 -0.03742974 -0.17080742 -0.08569451 0.13277371 -0.39632237 -0.5190037 -0.0553791 -0.031622622 0.141012 -0.018770715 0.07373399 -0.30659628 0.4790078 0.56006825 -0.036535334 -0.0745287 -0.5712271 0.13277607 -0.2865956 -0.3313089 -0.20103054 -0.2020662 0.39190766 -0.6250289 -0.21000017 -0.414421 -0.01927359 -0.38422227 0.03180491 0.017582407 -0.14495338 -0.099045634 -0.13331792 0.043744747 0.1870234 0.3149617 0.16772471 -0.472796 0.039357025 0.4351643 0.06599489 -0.75764495 -0.07663347 0.26454055 0.20056994 0.4031573 -0.3522983 -0.41628984 -0.28282467 -0.06984961 0.0830353 0.09804073 0.09757698 0.2961657 -0.5003685 -0.3156321 0.028186953 0.50266385 0.3398736 -0.15571478 -0.41983035 0.13955931 -0.15288505 0.2000255 0.32245076 0.077663474 0.018115947 0.2745575 -0.44819808 0.27001247 0.18560776 0.24066557 0.332429 -0.11118922 0.1440779 0.12309814 0.31265897 -0.11174811 0.13047524 -0.28402644 0.0062774406 0.5775855 0.28955916 0.05408822 -0.36394277 -0.17044817 0.30669945 -0.10620454 -0.49145395 -0.22161953 -0.60190207 -0.37443373 0.22157218 -0.5031028
254 0.26605514 0.13254564 -0.24606635 -0.75264174 0.28061184 -0.34007928 0.04322221 0.3574736 0.2266467 0.27819052 -0.12180252 0.26985046 -0.6106684 -0.37666342 -0.17581068 0.16394287 -0.06769214 -0.063998885 0.01756811 0.09351671 -0.0226649 0.21605447 -0.11473899 -0.45681125 0.38762018 -0.5509983 -0.01868217 -0.049230337 0.3448554 0.0931771 0.23860297 -0.05426547 -0.46031064 -0.06076629 0.21272206 0.34747308 -0.10220205 0.1005508 0.0405309 -0.5285735 0.18246253 0.037517257 0.29602858 -0.11048541 -0.13439798 0.76064044 0.18684593 0.44834578 0.41915593 -0.100495726 -0.30275056 -0.039598092 0.14257109 -0.31159937 0.22460513 0.3067056 0.045679756 -0.65658104 -0.73395145 -0.42369738 0.036158875 -0.36402872 0.5734621 -0.5199983 -0.03598307 0.0862922 -0.353819 -0.44006667 -0.2980362 0.4124783 0.51577324 0.00943264 0.17084107 0.104774594 -0.45081475 -0.1869636 0.0050440757 0.3312416 0.39978993 -0.14277644 0.15352787 0.14031707 -0.072183445 0.7102654 -0.08049231 0.0771867 -0.010010584 0.28999218 0.03663964 -0.11861046 0.015839161 0.4659045 -0.7710427 -0.7506764 -0.6484626 0.048527334 -0.44735643 0.28306454 -0.019146444 -0.07077026 0.17710161 0.08574496 0.13711864 0.061200272 -0.17956987 0.26946056 -0.16122307 -0.05669082 0.24014859 0.07573443 0.010301582 0.13890356 -0.098745 -0.27563256 -0.2733154 -0.09620613 -0.124914825 0.013255528 -0.07782919 0.035673056 0.116076216 -0.7114806 -0.07794995 -0.25925943 -0.42518783 -0.013977309 -0.24257714 -0.077765435
600 -0.07619095 -0.20827508 0.014249397 -0.053969562 -0.19212541 -0.39753863 0.24929984 -0.107609026 -0.5528712 -0.23756939 0.08057125 0.05410307 -0.56832385 -0.16533934 0.18360965 -0.109282464 -0.18127233 0.38458112 0.06385872 0.49273258 -0.39127642 0.4590304 -0.23780684 0.046970528 0.06678861 -0.36339775 -0.6112699 -0.45890206 0.13601519 0.05237687 0.044212487 0.11487928 -0.6349184 -0.29535905 0.29505736 0.12519175 0.23069993 0.13454576 -0.8409035 -0.06212376 0.07613826 0.15001571 -0.36041382 -0.49475327 -0.09755136 -0.09211613 0.1369988 0.74582505 0.4675467 -0.23532619 -0.4967736 -0.26594064 0.02130907 0.44441116 -0.07372185 0.06599134 0.08400066 -0.41646895 0.113707885 -0.35396978 0.09597153 0.17117955 0.73124474 0.34949204 -0.13507628 0.7368699 -0.30907086 -0.15565567 -0.4948577 0.005909162 0.34511313 -0.12511458 0.29942426 0.4713818 0.29847375 -0.3517546 0.14074716 -0.02687172 0.52511996 -0.32275233 -0.04105278 -0.08774522 -0.070869006 0.09932305 0.10106103 -0.3443862 0.27902204 0.37784684 -0.36851513 -0.8867966 -0.15767743 0.054271977 0.09852215 -0.44235414 -0.5832909 0.03549558 -0.32713985 0.048429396 0.55891895 -0.54269195 0.0028495812 0.32136136 -0.6998261 -0.034165457 -0.2971652 0.26973683 0.22188699 0.3041494 0.017883519 0.17389524 0.5073508 -0.41719037 0.031509586 -0.14179802 -0.37422216 0.082598336 -0.125493 -0.0807025 -0.05872192 0.3487551 0.68534255 -0.23867705 -0.03670458 -0.07814941 -0.38196126 -0.2786054 0.3572854 0.056864638
597 -0.011474228 -0.057406083 0.08757733 0.01609226 -0.10343746 -0.42250472 0.22518343 -0.20685235 -0.42771566 -0.28034124 -0.13100526 -0.0037208507 -0.37590045 -0.11868453 0.28000662 0.00034200316 -0.118644476 0.38702953 -0.08456407 0.24517624 -0.31971246 0.45571765 -0.11964477 0.032024596 -0.12838359 -0.12621933 -0.6338402 -0.34732497 0.022617767 -0.0020091454 -0.038337376 0.116668016 -0.59012383 -0.39337996 0.088842586 0.31661028 0.2496383 0.058798905 -0.83247495 -0.02402173 0.029551223 0.010471385 -0.2587141 -0.5632554 0.046677914 -0.039412662 -0.07840336 0.51871496 0.3654644 -0.025667218 -0.40347722 -0.075007595 0.11122288 0.17465389 -0.061247256 -0.041876942 0.32384697 -0.49750137 0.20194231 -0.14705011 -0.031209622 0.1760452 0.743286 0.33737928 -0.12107284 0.68965536 -0.47859672 -0.035568204 -0.31496954 -0.08203571 0.46146488 -0.31669897 0.31796727 0.6260333 0.09663639 -0.34015635 0.30069232 -0.037191335 0.47627708 -0.4391338 -0.112267666 0.04038 -0.13590835 0.004703777 0.055520337 -0.36499414 0.27357823 0.33626646 -0.32665178 -0.86680096 -0.38147274 0.110005684 0.11262648 -0.42819515 -0.55903095 0.09498774 -0.44355586 -0.16795376 0.5583368 -0.3551065 -0.107013226 0.3401083 -0.9146481 0.047842957 -0.14264773 0.2736282 0.31052747 0.16516106 0.15164828 0.1041555 0.21880175 -0.3612129 0.035858765 -0.23471847 -0.48321134 0.35069853 -0.20235659 -0.18805233 -0.06311388 0.10268264 0.7158902 -0.22385113 0.09548138 -0.10006884 -0.35147518 -0.21759544 0.32117566 0.06565886
400 -0.20523123 -0.068732865 -0.40430093 -0.23636878 0.05789262 -0.16746084 0.11779112 -0.13206008 -0.19512068 0.07767927 0.29012588 -0.07171974 -0.38679746 -0.13841389 0.2325942 0.02656982 -0.32380456 0.22924635 0.182567 -0.16907881 -0.25519776 -0.30509347 -0.09096715 -0.33767974 -0.21594541 -0.4485543 -0.024542823 -0.10489788 -0.1255765 0.52904296 -0.18568084 0.115521334 -0.34474227 -0.3156381 0.17312612 -0.2325417 -0.14798497 -0.08134659 -0.31709784 -0.34126207 -0.2775964 -0.058266424 0.4999789 0.18344541 0.20193838 0.18940985 -0.012996088 0.3016371 0.13691364 0.007298905 -0.016395953 0.48082596 -0.04344511 -0.080879495 0.21807906 -0.080233075 -0.10212119 -0.114034384 -0.05967167 0.05342473 -0.21317755 0.11554229 0.056761716 -0.4143599 0.22609505 0.31511927 -0.045003597 0.11769904 -0.019606829 0.23512131 -0.074814126 0.14246346 0.00357445 0.34393677 -0.040150184 0.099879146 0.19551916 -0.24133912 -0.062185783 -0.12779175 0.0044645807 -0.33884114 -0.2624928 0.61551493 -0.1388182 -0.24315624 -0.28298134 -0.07822021 -0.31501335 -0.4764671 -0.38884136 -0.19543593 -0.103098 -0.36553872 -0.4486991 0.56503886 -0.57098246 -0.04365946 -0.0087959645 0.07395971 0.33895376 0.24160725 -0.26979187 -0.037207197 0.14784528 -0.006507948 -0.71189976 -0.040493835 -0.027957967 0.4013476 0.3753816 0.1531184 0.076331 -0.2751691 -0.23262794 -0.3022655 0.028737482 0.21287774 0.20437941 0.044466563 0.59963876 0.002957075 -0.16422158 -0.34767997 -0.3332662 -0.46908617 0.2000672 -0.27789387
611 0.123201765 -0.12058745 0.08144155 -0.20819601 -0.006276448 -0.1233079 0.39071652 0.18554623 -0.55908954 0.11453828 -0.32094544 0.01157801 -0.3231971 0.113147736 0.03182108 0.0011141405 0.24852125 0.071221165 -0.16666855 0.62402546 -0.14454632 0.0733389 -0.44008294 0.1833041 0.2769375 -0.35198697 -0.35507792 -0.2567008 0.007820742 0.014361108 -0.009073028 -0.0005254696 -0.7265486 0.1935377 0.07522365 -0.20509087 -0.07194273 0.20067729 -0.33998883 -0.7047287 -0.14965315 0.049530096 0.26820526 -0.08874904 0.045724027 -0.3246159 0.6248691 0.8394963 -0.16146952 -0.14399788 -0.41364837 0.11706639 -0.36873853 -0.04989321 -0.24183875 -0.06545876 0.20806554 -0.45563078 -0.37957373 -0.4635002 0.1297336 -0.17283413 0.13574733 0.037090205 -0.32743797 -0.13491508 -0.103839666 0.047854926 -0.14641109 0.17170693 -0.007923445 -0.3665244 -0.103232466 0.3094029 -0.053463046 -0.55547565 0.047356743 0.19363937 0.02173756 0.43190902 -0.21599947 -0.3493521 -0.37269503 -0.016301366 0.32138994 0.08529191 -0.039073084 0.112050615 -0.41196448 -0.29436296 0.008998668 0.39577973 0.32946157 -0.2700167 -0.7265148 0.009805461 0.07944217 0.23858441 0.2581638 -0.00617183 0.087920986 0.25449392 -0.10138793 0.48350212 0.22550686 0.3536794 -0.0073054987 -0.13970694 -0.07224258 0.29478252 0.35350502 -0.097974196 0.05250459 -0.299837 0.060442604 0.31909525 0.31540108 -0.049749337 -0.2696769 0.023482662 0.28600648 -0.08727748 -0.39620256 -0.33916083 -0.5515271 -0.35462537 0.24554718 -0.3492702
1064 -0.21610329 0.3431095 -0.44325998 -0.7196076 -0.14553133 -0.104555495 0.29054838 0.019874329 -0.11485667 0.025290279 0.060532827 0.16377515 -0.26549855 -0.050209753 -0.017397404 0.049504623 0.19887008 0.2226521 -0.1464788 -0.19029522 -0.080367714 -0.30305445 -0.059197284 -0.16381504 0.092710994 -0.38459474 -0.043627966 -0.16793652 -0.17194629 0.5805621 -0.093432285 -0.2501812 -0.22241326 -0.37610865 -0.06327166 -0.30816743 -0.170778 -0.078755476 -0.46471283 -0.34803602 0.052371092 -0.046815958 0.2417067 0.2052246 0.15755177 0.043975674 0.1327602 0.010975551 0.25374183 0.09322801 -0.12013591 0.3124658 0.11215621 -0.22430536 0.030101392 -0.018593747 -0.23745953 -0.3849443 -0.3018752 0.21004742 -0.054390553 -0.073416546 -0.16608246 -0.20113288 -0.0804194 0.43024457 -0.057327744 0.18005173 0.10615634 0.5767109 -0.047316503 0.25358617 -0.12969583 0.48437345 -0.067494534 -0.087182924 0.3808951 -0.32223222 0.04859424 -0.36210752 -0.19958729 -0.34268507 -0.2518049 1.0105857 0.012824205 -0.1723291 -0.22145751 0.117212705 -0.40701124 -0.5309688 -0.37304783 -0.25783843 -0.20635968 -0.2078301 0.023798455 0.5479776 -0.43771192 -0.120074205 0.09872997 -0.32725427 0.43603674 -0.00056507246 -0.3208944 -0.21045582 0.06862341 -0.19112082 -0.40731153 0.018527918 -0.023437416 0.41838086 0.22811864 -0.08207395 0.016102115 -0.15642165 -0.18855825 -0.0612702 -0.0036457358 0.34502158 0.22744519 0.14329393 0.63482606 -0.123962976 -0.08866514 0.062641755 -0.12738813 -0.4793887 0.0970371 0.10333821
690 0.281489 0.1398974 -0.12634632 -0.6364612 0.17647484 -0.32994962 0.09621526 0.30372182 0.17844526 0.3959934 -0.11042329 0.28131178 -0.578348 -0.33105403 -0.14271472 0.2211425 -0.1208069 -0.1264972 0.086285025 0.13091996 -0.20461749 0.16998571 -0.13147807 -0.5006162 0.4485162 -0.50857455 -0.07834894 -0.11029835 0.24881315 0.0033679619 0.19577476 0.014750453 -0.49908215 0.023501683 0.2040196 0.43115336 0.006310718 -0.041323464 0.16480877 -0.5311951 0.17886356 0.030640708 0.2705414 -0.1543415 -0.20739421 0.75848126 0.08545009 0.5678331 0.5053722 -0.19729698 -0.42996377 -0.086312205 0.014620785 -0.43769166 0.28533092 0.32177228 -0.009670596 -0.68506324 -0.6986115 -0.47923368 0.090547755 -0.27045384 0.6195538 -0.5865869 0.023750676 0.005877704 -0.26636812 -0.6073105 -0.27924207 0.47084224 0.500358 0.029601518 0.25080028 0.0959358 -0.47863573 -0.19472384 -0.07686926 0.3400828 0.4268207 -0.15819626 0.27009422 0.0522432 0.026424205 0.6548545 -0.2654335 0.036647703 -0.0006540939 0.32342112 0.032780554 -0.26453334 0.19097719 0.4414638 -0.7208576 -0.69866794 -0.6789195 0.16602144 -0.45457283 0.26202348 -0.0052330224 -0.09547727 0.20058085 0.08820279 0.073870786 0.0811314 -0.18454024 0.30672604 -0.22724198 -0.07396123 0.23830381 0.0056144246 -0.015732922 0.13294846 -0.09639456 -0.25770798 -0.35324395 0.014933529 -0.12494743 -0.0059367847 -0.07416396 -0.07893419 0.029671667 -0.6800197 -0.26913157 -0.35443178 -0.52582204 -0.04787837 -0.23287211 -0.07060904
991 -0.08355878 0.091745764 -0.57330173 -0.15567848 -0.098284654 -0.27626407 0.3112855 -0.12824205 -0.26552656 -0.27253562 0.12667434 0.28714994 -0.19239502 -0.21867225 0.13260323 0.01700293 0.27818742 -0.2753945 0.14873366 0.006524617 -0.58202046 0.4243928 -0.05242755 -0.44380504 -0.3328489 -0.2709606 -0.21675137 -0.27417538 0.319905 -0.11971187 -0.00895801 -0.2474893 -0.54577094 0.25287783 0.2222487 0.0035624136 -0.22603571 0.005611561 0.10908915 -0.06971765 -0.05490263 -0.42575768 0.49217114 0.0022591138 0.1958744 0.015948545 0.59819734 0.98436743 0.15030159 0.48166 -0.18204528 -0.07175716 -0.1883436 0.23223895 -0.06022492 -0.257831 -0.08691983 -0.16269417 -0.66432714 -0.031979088 0.124186404 -0.21883178 0.61238325 -0.15891449 0.58338785 -0.079806924 0.4116474 -0.06929035 -0.3145835 0.2306316 0.055664357 -0.33970866 0.09107137 0.2407353 0.09856569 -0.06908235 -0.32717314 0.053390354 0.046482004 -0.00567922 0.20685925 -0.25637287 -0.04828757 0.6934191 0.18079107 0.23906405 -0.08631133 0.11248564 -0.52980673 -0.5509178 -0.022250904 0.08766952 0.31137618 -0.6437354 -0.3273208 0.39088944 -0.014361098 -0.11410738 0.23859815 0.12774347 0.15973227 -0.03898842 0.051315468 -0.058916744 0.47591713 -0.32433322 -0.15858416 -0.11459852 0.20542549 0.38512453 0.6183897 -0.37210116 -0.27855313 -0.15749799 -0.74947244 -0.58255047 -0.2874686 0.074475 -0.09671954 0.25702137 0.5702372 -0.26538065 -0.09223871 0.08997179 -0.15663624 0.17655846 0.10578013 -0.06566594
405 -0.09208651 -0.066005886 -0.09271876 -0.105039395 -0.074381724 -0.49755824 0.29871896 -0.24701858 -0.5499561 -0.3152417 0.07299655 -0.08661202 -0.58165705 -0.25088567 0.09237478 -0.021755507 -0.00636126 0.4698159 0.15757878 0.40598536 -0.05776556 0.3473942 -0.21741977 -0.013551524 -0.10158487 -0.3961628 -0.3798739 -0.3727904 -0.0069243684 0.009438504 0.028495025 0.06695098 -0.66186947 -0.28040603 0.19839191 0.0955634 0.13418795 0.034056943 -0.78057605 -0.22296953 0.09904093 0.09366457 -0.36739567 -0.47175086 0.022032738 0.038709324 0.11855197 0.7266098 0.33852607 -0.15902317 -0.38066998 -0.077198185 0.051027 0.45927408 -0.06381416 0.14897189 0.16600856 -0.38457847 0.09011027 -0.23014371 0.18165329 0.15238576 0.6073044 0.46967995 -0.3506094 0.6992291 -0.38465032 -0.00922308 -0.6227753 -0.000984 0.2407783 0.012659691 0.18768987 0.4928591 0.13454114 -0.1190606 0.23918769 -0.10066113 0.44754103 -0.27500805 0.008843029 0.03786161 -0.18015017 0.35341877 0.21638748 -0.40773815 0.2390088 0.19456998 -0.37904018 -0.886444 -0.2032045 0.2549727 -0.010430031 -0.28438026 -0.67019814 -0.004375622 -0.38033122 0.066499084 0.4028885 -0.5216896 0.012424677 0.2888648 -0.7526566 0.05244019 -0.23648413 0.35484636 0.008169566 0.33995247 0.0041343663 0.1530939 0.42780554 -0.317816 0.0042255144 -0.31418598 -0.2411539 0.11618536 -0.26324952 -0.1518447 -0.008839337 0.24110857 0.8550262 -0.24874452 0.073134996 -0.15636285 -0.34302855 -0.1969091 0.40200076 0.10939742
623 0.59905905 0.15469676 0.30323842 -0.15771213 -0.06467832 -0.5692573 -0.041472428 0.10103819 -0.3611696 0.29860094 -0.18046089 -0.11136105 0.17592114 0.16947022 0.07623177 0.38532665 -0.3739305 -0.3554995 -0.04069231 -0.057943657 -0.25067177 -0.5830295 -0.009452939 -0.2113815 0.009017448 -0.26997468 -0.25035504 -0.35967168 -0.04350604 0.5244467 0.2603664 -0.12758905 -0.5897618 -0.016500033 0.33418253 0.21177115 -0.04981932 -0.21615918 -0.004250964 -0.4767656 0.14013977 -0.13133171 0.45940655 -0.30843118 0.15376799 0.058466382 0.3412105 0.9401746 0.19673567 -0.35607606 0.3536791 0.44203815 -0.16896175 0.3737842 0.4728537 0.18772124 0.031615943 0.023806024 -0.0060452833 -0.0069338703 -0.08609241 0.45805445 0.54007506 0.18331632 0.017850375 0.055999037 -0.0016253784 0.0029142015 0.035591792 0.37885433 0.4307702 0.29439405 0.17695874 0.40023553 -0.3639798 -0.3004672 -0.18280013 0.23923859 0.40931135 0.22967674 0.004124484 -0.6729807 0.33207914 -0.31140116 0.0005902902 -0.35457456 -0.1951036 0.66879195 -0.09758082 -0.5934662 -0.09466982 -0.030111972 0.08983202 -0.8752005 -0.7422451 0.8511124 -0.34066004 -0.19868474 0.29916602 -0.036557384 0.12607613 0.8067558 -0.18407238 0.097356886 -0.46373746 0.5218353 -0.14662634 -0.009250983 0.34894818 0.05616363 0.13724123 0.33305064 0.27401146 -0.26337197 -0.2627779 -0.24231148 -0.069259964 0.2887961 -0.22247963 0.49430242 -0.024582906 -0.15467244 0.42731652 -0.3488752 -0.88682 -0.42710903 0.3679464 -0.09494169
977 0.64316136 0.18431586 0.28503132 -0.16617218 -0.06716375 -0.56848186 -0.06679589 0.09239804 -0.3600386 0.31429112 -0.18318711 -0.099005066 0.20703314 0.18381278 0.061674464 0.3878895 -0.3738693 -0.36312288 -0.045234907 -0.046711348 -0.24995483 -0.58548015 -0.006303656 -0.19284824 0.04440137 -0.28106734 -0.22510828 -0.34748104 -0.042576768 0.5267623 0.29178512 -0.12452291 -0.59781355 -0.02902332 0.34339154 0.24850114 -0.033766564 -0.22223172 -0.01371653 -0.44795734 0.14483914 -0.15100771 0.42307153 -0.3207779 0.11927879 0.08943478 0.3384447 0.93710417 0.23620625 -0.36566705 0.36035296 0.4511586 -0.18238647 0.39119685 0.4778214 0.20119683 0.05500256 0.028945023 0.006932155 -0.002001487 -0.08376236 0.4824585 0.5560322 0.22126961 0.03343668 0.06746626 0.0020694153 -0.012221272 0.05403483 0.38838935 0.43230832 0.32347566 0.19993122 0.3842426 -0.35749352 -0.3148878 -0.17663257 0.22186856 0.43285125 0.20229058 -0.0015346132 -0.6898756 0.35754123 -0.3090582 -0.023420546 -0.38266298 -0.20908979 0.69822466 -0.09531338 -0.62379116 -0.09915867 -0.03076018 0.070806794 -0.8932152 -0.7477624 0.88106656 -0.36911672 -0.21045117 0.31165257 -0.041227903 0.13543718 0.8343487 -0.20290905 0.056231923 -0.50136906 0.50446177 -0.09203413 0.031377595 0.3879504 0.017659362 0.11900288 0.3264398 0.2740531 -0.28927165 -0.28246373 -0.22577627 -0.070447296 0.28962705 -0.20406793 0.48662722 -0.042452388 -0.16082487 0.43984774 -0.306209 -0.87637717 -0.4507375 0.3757241 -0.0985203
925 -0.18859048 -0.23892678 0.02708324 -0.014691355 -0.029726004 -0.5129015 0.13719645 -0.15187386 -0.54202485 -0.26986107 0.20513076 -0.06533774 -0.5988053 -0.05810383 0.20297234 -0.047903217 -0.23588131 0.31695363 0.17138395 0.42463452 -0.18350402 0.29993412 -0.21379985 -0.10663321 -0.033775497 -0.3937502 -0.44921118 -0.38097143 0.035119615 0.16422425 -0.058968462 0.15246883 -0.66145515 -0.3031393 0.18160482 0.15562955 0.2931341 0.027729869 -0.80298424 -0.11205982 -0.017240118 0.14161347 -0.27996662 -0.4016842 -0.02130683 -0.0369346 0.04370474 0.7464273 0.30404732 -0.38390175 -0.30703413 -0.11415912 0.09310516 0.41522115 0.053908583 0.073465146 -0.027515989 -0.34590653 0.1583076 -0.35061324 0.069538906 0.2796639 0.60784066 0.3869892 -0.08819543 0.7609776 -0.35368964 -0.198526 -0.53143406 0.010936087 0.21432054 -0.08109212 0.26894012 0.54286844 0.124835 -0.17098227 0.20019163 -0.12024331 0.44066995 -0.34247184 0.01929257 -0.013420019 -0.075784214 0.17931928 0.13102485 -0.44291306 0.21620886 0.2882432 -0.37060407 -0.8721118 -0.21373254 -0.090662874 0.11252498 -0.3640572 -0.5843375 -0.043507062 -0.36657903 -0.0066430806 0.5419017 -0.5772919 0.044895235 0.36937448 -0.64878947 0.012321064 -0.28408462 0.3602631 -0.023845177 0.22874537 -0.112068765 0.31220868 0.40227255 -0.27123806 0.07338426 -0.19252685 -0.25517735 0.024175499 -0.22075063 -0.08834473 0.05404668 0.27530017 0.7317636 -0.2761608 0.0911141 -0.22642034 -0.39316642 -0.24587184 0.4103897 0.071924716
1042 0.3262689 0.14617838 -0.1097557 -0.6900856 0.2190891 -0.34072745 0.08147242 0.31252903 0.14726114 0.38694286 -0.10686653 0.27445814 -0.5998407 -0.34328908 -0.1522099 0.21450411 -0.09188649 -0.104529396 0.108958185 0.14039446 -0.19520324 0.11916044 -0.15610373 -0.5041769 0.40770975 -0.54945874 -0.061876196 -0.079846494 0.21150096 -0.0070743635 0.18059511 -0.001524441 -0.5358555 0.04145023 0.19498783 0.45433575 0.023171019 -0.037515037 0.11903626 -0.5556195 0.16291302 0.01879636 0.2514329 -0.14498158 -0.14483209 0.7390321 0.077367395 0.5476487 0.47445473 -0.18400006 -0.41317528 -0.084494375 0.01742483 -0.43073893 0.27137405 0.29102767 0.0024901957 -0.7125337 -0.6847821 -0.4786571 0.07403985 -0.28502926 0.5969805 -0.5572326 0.019663261 0.020345204 -0.2607199 -0.6016512 -0.30291775 0.43778306 0.4900381 0.04165831 0.27694348 0.07286573 -0.4686703 -0.16542518 -0.060463503 0.34719676 0.44316664 -0.15816265 0.25692132 0.066990845 0.04647171 0.65118366 -0.26736635 0.026971722 -0.026641345 0.29156414 0.012146574 -0.2644792 0.14842455 0.44743776 -0.73424655 -0.69106853 -0.7260743 0.15267077 -0.4618251 0.26398516 -0.016890949 -0.08180516 0.23654272 0.092839934 0.07205352 0.10787229 -0.1851929 0.29858318 -0.20543404 -0.03359432 0.22316736 -0.017972471 -0.017078938 0.12716164 -0.1001184 -0.30639988 -0.35684597 0.060746904 -0.12752387 -0.05885138 -0.07947785 -0.099474445 0.071444616 -0.6518164 -0.26413354 -0.3746144 -0.51307595 -0.013667407 -0.24325886 -0.11062182
328 0.6738632 0.23773597 0.34668788 -0.057473466 -0.06994939 -0.51956683 -0.06653981 0.054546874 -0.26620808 0.34280264 -0.17711906 -0.055077244 0.23285764 0.16164774 0.05855009 0.39271337 -0.36944857 -0.3603958 0.026715118 -0.027840193 -0.24452996 -0.60219544 0.04449059 -0.1486604 0.07539481 -0.2695248 -0.23195817 -0.27695626 0.01472539 0.55362064 0.3096182 -0.09708839 -0.5491952 -0.050429787 0.31772488 0.3578683 -0.036575407 -0.22575913 -0.0067654764 -0.4358026 0.17085588 -0.18372527 0.39852703 -0.34097368 0.04321435 0.10349879 0.22476788 0.8157063 0.28103748 -0.39134455 0.32561588 0.45149556 -0.18624252 0.396754 0.47890207 0.244881 0.082439005 0.058012366 -0.017101685 -0.07470889 -0.05540361 0.5267884 0.6735316 0.1696636 0.008910086 0.06200315 0.018657224 -0.06809957 0.09326537 0.34963092 0.4174937 0.3372358 0.19557117 0.41431338 -0.4096673 -0.33873457 -0.18157907 0.17871478 0.47472516 0.17953674 -0.010837345 -0.63183856 0.4036427 -0.31099847 0.020491345 -0.3984245 -0.1960701 0.66853833 -0.060149368 -0.6667284 -0.052869495 -0.028715502 0.06063294 -0.91666216 -0.6767563 0.84676915 -0.33827952 -0.2142107 0.37011707 -0.05405692 0.11532504 0.8317665 -0.23533288 0.01572999 -0.45809615 0.5329557 -0.09505416 0.06570297 0.41246745 -0.0054762326 0.07663356 0.3237322 0.30074647 -0.25559637 -0.2154904 -0.18207318 -0.04456566 0.2683352 -0.21210039 0.45206895 -0.08660606 -0.13798963 0.4232279 -0.25179312 -0.8677381 -0.44734433 0.31629702 -0.10494019
1014 -0.098353855 -0.12231383 0.005244344 -0.05940089 -0.1366537 -0.44751886 0.2454334 -0.16157769 -0.54686576 -0.26250863 0.057968665 -0.0431988 -0.6017017 -0.13389978 0.13386305 -0.030470792 -0.1757546 0.40727744 0.10109955 0.47385803 -0.30945435 0.3998531 -0.2184664 0.03209793 -0.0015656486 -0.36967796 -0.55493766 -0.44693306 0.030959958 0.003991147 0.011163253 0.092862405 -0.6529034 -0.2910196 0.24984533 0.15708017 0.23333304 0.093507186 -0.8522808 -0.10610748 0.11797236 0.13739562 -0.39468026 -0.5227352 -0.046467677 -0.062221527 0.11752854 0.78562605 0.4071396 -0.2399347 -0.4431917 -0.24396141 -0.004781353 0.45393088 -0.12598729 0.10945987 0.10638624 -0.43676066 0.14042945 -0.30523193 0.08782808 0.15819229 0.68562394 0.35558167 -0.1871152 0.66189355 -0.36834386 -0.09165762 -0.48044878 -0.011180082 0.2685669 -0.12709238 0.25741094 0.522453 0.23706698 -0.26934585 0.20567726 -0.023430709 0.49151906 -0.2536403 -0.03566664 -0.071317025 -0.11160466 0.13364847 0.14418367 -0.37091568 0.30475676 0.37625456 -0.3915916 -0.89821774 -0.19375992 0.06327762 0.10651085 -0.43029556 -0.61086386 0.04967902 -0.36092532 0.013045909 0.51561016 -0.5009488 -0.00066744623 0.30355418 -0.7440283 0.006025109 -0.29951262 0.28373224 0.17691678 0.30080104 0.012895782 0.19635619 0.42968333 -0.37192827 0.04810033 -0.17656739 -0.3708336 0.10013277 -0.16913393 -0.07918216 -0.039242126 0.31338295 0.7395631 -0.26470336 -0.009144758 -0.10493081 -0.372394 -0.23525457 0.3546995 0.104071
441 0.22991881 -0.011412479 0.18767777 -0.22870605 -0.10543046 -0.19930339 0.45366025 0.16938949 -0.5702397 0.27284405 -0.39899182 0.00089633337 -0.25708544 0.21367702 0.039875127 0.11786979 0.29602057 -0.0885612 -0.11582959 0.58502895 -0.19278055 -0.09249332 -0.4611012 0.20024788 0.35665417 -0.29819584 -0.36130127 -0.2789228 -0.05336212 -0.023543486 0.007175181 -0.01051209 -0.78343356 0.20758845 0.03935803 -0.1851896 0.006482716 -0.006770359 -0.18687417 -0.8741279 -0.05063616 -0.07130076 0.39229017 -0.032338012 0.12068821 -0.363055 0.59423876 0.9603916 -0.12786071 -0.22980006 -0.39598668 0.23100145 -0.47431108 -0.13429312 -0.20017904 -0.061446905 0.22013526 -0.5070172 -0.3567854 -0.36090377 0.15928237 -0.15616144 0.13885336 -0.10235074 -0.16641234 -0.27804652 0.04497831 0.06731514 -0.04838995 0.24528718 -0.042958997 -0.31396383 -0.17174928 0.36160088 -0.14666906 -0.49666148 -0.09553307 0.2789459 0.03297259 0.47871435 -0.28967196 -0.501823 -0.22868465 -0.021049328 0.2729504 0.20103997 -0.07139253 0.17796424 -0.5214676 -0.24163657 0.16943592 0.37812927 0.3528997 -0.34285015 -0.5410785 0.25476664 0.15044431 0.122424155 0.21108307 0.050779797 0.14698668 0.25317055 0.023725478 0.6147284 0.25813845 0.2423888 -0.028729538 -0.19386446 0.083105005 0.25359756 0.2045249 -0.116434 0.1240737 -0.20527604 0.045831304 0.2645565 0.25003475 -0.017576233 -0.38883764 0.06542499 0.17254978 -0.047047872 -0.4443318 -0.34684843 -0.6827029 -0.365893 0.19457097 -0.3846287
213 -0.18087053 -0.03038059 -0.35332176 -0.40453485 0.0029389884 -0.23794486 0.184535 0.0007193092 -0.30381486 0.12497661 0.18508312 0.063373804 -0.3853738 -0.0010534729 0.35539943 -0.040934023 -0.050396573 0.08057589 0.03574806 -0.1091975 -0.17187928 -0.5028669 -0.13886769 -0.18222113 -0.13308261 -0.5037141 -0.03944902 -0.0854141 -0.1601445 0.58083016 -0.25648466 -0.0058148783 -0.34910864 -0.28397843 -0.027053345 -0.15001148 -0.08421437 -0.16004662 -0.54003716 -0.49746987 -0.28205594 -0.010267412 0.42888334 0.28051487 0.28282714 0.01341632 -0.0986189 0.16233888 0.19246715 -0.036243446 -0.017937537 0.39422986 0.050570916 -0.28015476 0.27948812 -0.18502447 -0.20550483 -0.22202608 -0.19674124 0.027641514 -0.2168403 -0.028756902 -0.018801179 -0.3110447 0.18237467 0.47421682 -0.09671815 0.09853612 0.06489564 0.4252972 -0.095663644 0.11330184 -0.054556742 0.45355684 -0.22049542 0.08481475 0.28671327 -0.12595421 -0.043223158 -0.2510232 -0.06818549 -0.24142046 -0.22330208 0.72273237 -0.13121459 -0.19669425 -0.22325185 -0.10099319 -0.41462597 -0.5962809 -0.40290293 -0.31402418 -0.01665891 -0.249595 -0.2575107 0.4589714 -0.4916224 -0.14846285 0.13705146 -0.18489456 0.32856414 0.20614338 -0.23524751 0.15094611 0.06672519 0.024244558 -0.67313075 -0.07401542 -0.14128551 0.5097492 0.33701265 0.044559926 0.11125232 -0.39433682 -0.1952956 -0.014438549 -0.11298009 0.14521661 0.23803921 0.045947604 0.52970666 -0.012674144 -0.15880264 -0.31460267 -0.42090708 -0.4168885 0.26478103 -0.06957632
534 0.34021914 0.15700641 -0.11033875 -0.67026424 0.1768123 -0.3296884 0.118784904 0.33046728 0.16278717 0.41542548 -0.12566096 0.28409034 -0.5730449 -0.33995458 -0.12712304 0.21205592 -0.07881592 -0.16066526 0.076632656 0.12296558 -0.16651027 0.10208211 -0.12142776 -0.4867646 0.45709458 -0.52175426 -0.06829885 -0.10137809 0.23887224 0.0028896036 0.19490752 -0.0059472728 -0.5033171 0.030625992 0.1866301 0.45946652 0.0024076481 -0.06416202 0.13087437 -0.57331467 0.16028826 0.006353949 0.2692775 -0.14237146 -0.15034783 0.74712443 0.05386287 0.57300586 0.49913433 -0.17489947 -0.40301183 -0.077327445 0.062465012 -0.45833188 0.32634598 0.31490865 -0.03392241 -0.6936747 -0.7084016 -0.48534447 0.07545377 -0.28246757 0.649608 -0.5993021 0.023468632 0.034054704 -0.25673497 -0.59988266 -0.24670385 0.4667464 0.52233666 0.04184345 0.24844381 0.0696478 -0.5221138 -0.17891344 -0.076113686 0.36656347 0.4434812 -0.15193394 0.2686298 0.07647814 0.06962636 0.65727085 -0.28879625 0.03845215 -0.005700715 0.30793005 0.025534486 -0.27252042 0.18987161 0.42588234 -0.7321344 -0.7027344 -0.6793769 0.19411029 -0.44663495 0.23674794 0.0059964005 -0.13890283 0.19602741 0.10157202 0.10811502 0.10633535 -0.23349144 0.31202838 -0.19833754 -0.066032134 0.238896 -0.015884567 -0.020322861 0.13259852 -0.085180365 -0.28654468 -0.32195723 0.053895056 -0.14931951 -0.019676395 -0.06429614 -0.056562837 0.0068347827 -0.67491204 -0.248489 -0.39231157 -0.57867676 -0.060319178 -0.23577593 -0.0765405
548 0.30878934 0.13619924 -0.095061205 -0.66168875 0.19403563 -0.34770957 0.09365685 0.31616008 0.16448608 0.412109 -0.1351758 0.2673357 -0.5907332 -0.32922485 -0.13951577 0.23388994 -0.10370027 -0.12062738 0.0824329 0.13308576 -0.19088255 0.143815 -0.13593587 -0.4791348 0.44290173 -0.50481856 -0.07056099 -0.08814762 0.22076555 -0.008391207 0.1682022 0.01890747 -0.5065883 0.042614166 0.2018944 0.44027966 0.026832597 -0.05622956 0.14634117 -0.56816816 0.14223407 0.032649573 0.23579489 -0.1285621 -0.17111175 0.72708976 0.051322933 0.5804056 0.49716872 -0.19499612 -0.41434833 -0.107639655 0.040129427 -0.46441722 0.30859324 0.31421775 -0.011688812 -0.6880015 -0.70362127 -0.47029036 0.09383797 -0.2771185 0.593825 -0.57205915 0.021151636 -0.0116455415 -0.26305628 -0.62884474 -0.28564477 0.45075673 0.4976944 0.05041052 0.27969265 0.06310794 -0.50034153 -0.17210339 -0.08303934 0.36615166 0.4218363 -0.15719905 0.26398456 0.051242504 0.05978549 0.6557935 -0.27812237 0.029244581 -0.017833684 0.32706016 0.010042107 -0.24967325 0.18806139 0.4064752 -0.7244726 -0.6638853 -0.6951253 0.18698634 -0.47170663 0.26137006 -0.0037553608 -0.12887265 0.19018234 0.072059 0.07453343 0.09674594 -0.24034223 0.33521488 -0.21100177 -0.062171895 0.20637718 -0.016892359 -0.050123874 0.14997272 -0.089355595 -0.27733153 -0.3140211 0.058303084 -0.14977117 -0.02565688 -0.057394873 -0.07546678 0.042960085 -0.67585367 -0.28319085 -0.37111142 -0.5445741 -0.055572525 -0.21312548 -0.0667615
936 0.40446016 0.030437022 0.27576813 -0.26537743 -0.11243144 -0.10501233 0.43601722 0.23154408 -0.5119817 0.3382773 -0.45228466 0.004348159 -0.26691735 0.39491904 0.085271776 0.057277493 0.30712813 -0.0800954 -0.13310088 0.65413564 -0.12073065 -0.16164717 -0.4801293 0.3393919 0.45385998 -0.3504241 -0.45231393 -0.2571517 0.04922751 -0.02834518 0.06957942 0.03181679 -0.72425187 0.14404266 -0.023053104 -0.16026339 0.025654146 -0.02898546 -0.36300367 -0.8465788 -0.031891383 -0.11389423 0.32546732 -0.019864392 0.07664971 -0.2911111 0.41580743 0.7905667 -0.07909363 -0.28877434 -0.5158094 0.23783949 -0.37766019 -0.13594076 -0.2161051 -0.08329811 0.23149304 -0.6624441 -0.33138594 -0.41564715 0.025211137 -0.24810816 0.011103067 -0.14204767 -0.15843706 -0.20746352 -0.07343766 0.11453261 0.21331136 0.37701648 -0.13570492 -0.29320833 -0.1686046 0.40424776 -0.07767459 -0.57791245 -0.11148368 0.28187165 0.12747866 0.43187836 -0.42359212 -0.61963224 -0.24076554 -0.018182062 0.18525939 0.22670722 0.018944344 0.2921677 -0.6101544 -0.24405369 0.104293086 0.38641578 0.42833987 -0.3082317 -0.4993078 0.23827223 0.0041433773 0.21195307 0.15805596 0.046711426 0.25384772 0.2927736 -0.0750274 0.56637156 0.20254105 0.17820518 0.1114169 -0.1474175 0.12872885 0.17017847 0.24728139 -0.13683803 0.20133492 -0.24341272 0.17627461 0.43728775 0.3136294 0.03067415 -0.5277748 -0.053382788 0.19927338 0.018614095 -0.55209863 -0.2028933 -0.7199033 -0.4544854 0.1492346 -0.476519
264 0.32291672 0.14245999 -0.10647953 -0.64917487 0.18438068 -0.32496125 0.08538654 0.33925053 0.17498934 0.4486387 -0.1314728 0.26910338 -0.5755436 -0.35142693 -0.10952955 0.24648291 -0.091135055 -0.1657885 0.057300247 0.122005925 -0.17965883 0.11950061 -0.1298402 -0.48132905 0.44868523 -0.5024826 -0.0850359 -0.11261885 0.24353822 0.03284997 0.20943119 0.01383505 -0.4920541 0.008271112 0.1704678 0.43398955 -0.010020973 -0.051577512 0.12971278 -0.54991674 0.19577603 -0.0043913564 0.25427878 -0.13009912 -0.168957 0.74981415 0.04654249 0.5441726 0.50784993 -0.22554539 -0.39100528 -0.048789546 0.050645493 -0.45058206 0.31496456 0.32352358 -0.025704212 -0.6846808 -0.6981275 -0.49904373 0.10333874 -0.24957065 0.63506293 -0.5838157 -0.0027571272 0.018607158 -0.27087227 -0.6303071 -0.2558889 0.47658536 0.5331455 0.029242864 0.22478671 0.09803064 -0.50257844 -0.18762964 -0.064917475 0.36510792 0.4413392 -0.17216772 0.2700251 0.07072667 0.05385487 0.62313473 -0.25643933 0.037901178 0.010632512 0.34141982 0.031993277 -0.2625557 0.1939545 0.41490024 -0.73467886 -0.702355 -0.6743322 0.18241948 -0.43785807 0.25263464 0.017329397 -0.12129823 0.17220184 0.09131862 0.06269573 0.08765131 -0.23743229 0.32257593 -0.23891571 -0.07866181 0.2432796 -0.035277072 -0.03843995 0.14610992 -0.0749983 -0.25992462 -0.32332194 0.044779036 -0.12958767 -0.01714124 -0.06929579 -0.053560417 0.007795784 -0.6898972 -0.2607299 -0.36355832 -0.55190516 -0.04436139 -0.23286659 -0.09572086
596 0.31569266 0.14132948 -0.12258014 -0.6739429 0.18152452 -0.32295552 0.105126195 0.3460871 0.16157664 0.44101647 -0.1305116 0.2961429 -0.58949137 -0.33865616 -0.10556725 0.22398664 -0.089895725 -0.16824807 0.076062806 0.10796075 -0.19870882 0.10943663 -0.15307096 -0.49638006 0.45474824 -0.49978852 -0.07330213 -0.081220984 0.25049436 0.0007768308 0.16777691 0.020720135 -0.48178095 0.02218588 0.15969893 0.41557896 -0.0055104485 -0.06562206 0.12730767 -0.5444697 0.16856533 0.020479204 0.23807585 -0.09781662 -0.14962216 0.7470901 0.055452175 0.55011344 0.50486416 -0.1854376 -0.40276107 -0.10537424 0.086409666 -0.4806896 0.32615504 0.31218728 -0.05965734 -0.70235896 -0.69846123 -0.46021703 0.093608245 -0.29508162 0.61949223 -0.6061728 0.04965126 0.02593218 -0.24293305 -0.6329379 -0.23747085 0.5016192 0.5161499 0.051903825 0.24853252 0.06837832 -0.50694644 -0.20367472 -0.06890315 0.3942363 0.4249741 -0.16775915 0.26070318 0.031168837 0.044864424 0.6885691 -0.31824133 0.0400819 -0.0068428162 0.345619 -0.0064529753 -0.21899086 0.19743137 0.372835 -0.72581995 -0.67343324 -0.68090963 0.19025946 -0.44107422 0.27316642 0.0052943304 -0.11953497 0.19018762 0.049386434 0.06186813 0.1049129 -0.23642848 0.2866987 -0.21157886 -0.07536773 0.20845892 -0.005902841 -0.02924916 0.16667035 -0.09097425 -0.2630664 -0.33688477 0.095137805 -0.16261353 -0.009322227 -0.07601238 -0.053476516 0.023051804 -0.6607939 -0.2642401 -0.36954856 -0.5360291 -0.044319388 -0.2316948 -0.07681613
349 0.3482222 0.25305212 -0.20837544 -0.69817734 0.13089027 -0.2985655 0.14564838 0.3268853 0.07287011 0.3393522 -0.061323237 0.18290731 -0.4854382 -0.41168967 -0.25904533 0.18792112 0.058451712 -0.07195453 0.10042669 0.105667986 -0.11480389 0.18050131 -0.10417391 -0.5506011 0.3806487 -0.3937492 0.003891175 -0.1710087 0.21416987 -0.049361296 0.24264708 -0.110651456 -0.4863419 0.10655868 0.18383823 0.3426651 -0.105116375 -0.020499138 0.14441349 -0.50922924 0.21739437 -0.011033831 0.21424505 -0.06683661 -0.14855358 0.6918734 0.19110644 0.6224531 0.33619294 -0.09782919 -0.34615487 -0.09116068 0.007023976 -0.40597832 0.17322986 0.28866568 -0.11341632 -0.6795708 -0.6923583 -0.4664148 0.17124619 -0.2791189 0.5208389 -0.4865345 -0.085287794 0.09612453 -0.23623571 -0.5153212 -0.33771166 0.4430436 0.5351982 -0.027205536 0.18853606 0.055061236 -0.44901535 -0.19379033 0.045735124 0.2822585 0.33882087 -0.13762085 0.194503 0.14223811 -0.075962834 0.70096326 -0.13180797 0.025727395 0.051766366 0.26840502 -0.027067844 -0.24310133 0.14361067 0.52300406 -0.7187899 -0.58646864 -0.6263926 0.1657573 -0.358746 0.25239024 0.061986238 -0.1470558 0.2576383 0.06431632 0.04572817 0.030742874 -0.181548 0.29027364 -0.2403223 -0.030971937 0.20581874 -0.010591992 0.029773146 0.09286694 -0.120312385 -0.329478 -0.33023965 -0.027142236 -0.11089569 0.003975061 -0.02930731 -0.045440804 0.099507965 -0.6808121 -0.24424593 -0.33710393 -0.4237613 -0.038087197 -0.18549852 -0.16437253
14 -0.28588638 -0.24603231 -0.42093045 0.08206015 0.42997605 0.07286523 -0.06220054 -0.24328575 -0.1878163 -0.2518015 0.2588855 -0.13948263 -0.55109334 -0.050668083 -0.13171247 0.13500665 -0.785909 0.23513985 0.20838013 0.110014506 -0.32605878 0.24433064 -0.25976843 -0.1935088 -0.6239098 -0.58670294 -0.32923758 -0.10666005 -0.21773207 0.388271 -0.08913965 0.40311646 -0.7163645 -0.44382668 0.38961154 -0.09216635 -0.048553962 0.17224617 -0.112072706 -0.3291002 -0.3391962 -0.06832056 0.5703036 -0.25437215 0.14135082 0.46582937 0.124198 0.68856037 -0.09171798 0.112942524 0.058165953 0.4987375 -0.1523703 0.47730637 -0.095431894 -0.028163077 0.31274745 -0.17046614 0.032353897 -0.18935145 -0.20900911 0.008406354 0.3714565 -0.61790955 0.41591862 -0.0003637512 -0.14937326 0.13302346 -0.26021972 0.11184927 -0.16296394 -0.08457461 0.29243 0.164838 0.19647883 0.046627767 -0.28374243 -0.3017369 0.14908354 0.12429667 0.07851052 -0.4621634 -0.4361201 0.31494066 0.021454018 -0.10892793 -0.3272574 0.0609828 -0.35357487 -0.48470268 -0.35847127 0.0055808 0.06064177 -0.5468527 -0.74506843 0.35803193 -0.65016407 0.4009432 -0.19866395 0.5201096 0.04118439 0.38279718 -0.37869072 -0.15825363 0.35797063 0.23346825 -0.4240525 -0.115642324 0.17385267 0.2606486 0.49002033 -0.02730547 0.01111381 -0.24379213 -0.3489635 -0.4754455 0.2586813 0.14903502 -0.06579156 -0.026555935 0.9759437 -0.28810167 -0.32317042 -0.16777039 -0.25697303 -0.27195287 0.2471614 -0.4125425
906 -0.16173205 -0.038818583 -0.27035594 -0.33949214 0.04135995 -0.2999188 0.11409347 -0.15042244 -0.20270942 0.18047605 0.056696206 0.021069147 -0.30557862 0.018326623 0.4069129 0.0006324838 -0.24092866 0.20584318 -0.036412686 -0.09845394 -0.08686906 -0.284528 -0.10092499 -0.16102886 0.2061569 -0.32843634 0.042278532 0.051728655 -0.11373609 0.4451526 -0.22289881 0.08649277 -0.3561282 -0.29919842 0.18241395 -0.02298282 0.053417373 -0.2823017 -0.33603728 -0.50609404 -0.2392385 -0.018781452 0.45921096 0.31249753 0.16571738 0.05406629 -0.32700565 0.10935953 0.4184814 0.0030747373 -0.2690121 0.19170703 0.2445761 -0.3905607 0.38071498 -0.007697791 -0.1519857 -0.23607703 -0.24099621 0.16267724 -0.26380935 -0.036116753 0.0041713584 -0.43195447 0.40919828 0.25785315 -0.11042334 -0.02355822 0.24691817 0.33749515 -0.06517622 0.32840186 0.11869676 0.20225604 -0.25355333 0.08044815 0.12876934 0.03116648 -0.036628317 -0.19519627 0.011999328 -0.3924682 -0.140672 0.8659885 -0.32770613 -0.1912298 -0.18675877 0.08650814 -0.45750216 -0.35324785 -0.18456765 -0.40684435 -0.13927156 -0.21565053 -0.35399044 0.6435709 -0.7121192 -0.1345441 0.026894879 -0.19593044 0.34311014 -0.0038325728 -0.12454117 -0.016708676 -0.08800977 -0.079957455 -0.56880957 -0.10427305 0.01164431 0.41026407 0.08289363 0.113415845 0.06912181 -0.3161632 -0.09011611 -0.08565114 -0.24993561 0.4129032 0.24747664 -0.020558508 0.4952712 -0.11652662 -0.21947655 -0.35233507 -0.41560578 -0.51573575 0.15684043 0.0800344
1038 0.021936717 -0.089745805 -0.5278695 -0.26744303 0.13180152 -0.072318085 0.10945303 -0.03721246 -0.22995041 0.17132576 0.176913 -0.081360385 -0.35904172 -0.10446744 0.2545303 0.06780883 -0.052894548 0.016095635 0.123793595 0.036582604 -0.07785673 -0.28044018 -0.14039174 -0.051334657 -0.43912145 -0.3706868 -0.094802834 -0.19250564 -0.09092269 0.3729337 -0.2223163 0.12199802 -0.33239946 -0.19409637 -0.022810206 -0.19207136 -0.21846896 -0.11321836 -0.40519023 -0.28778368 -0.2103665 -0.09653782 0.38886675 0.23138812 0.42822126 0.045100708 -0.10776311 0.21849942 0.08772566 0.18605734 0.011698022 0.5478613 -0.025694987 -0.07242839 0.16789843 -0.28908455 -0.074545205 -0.19365065 -0.07052153 0.17872043 -0.17913172 -0.23722006 -0.1287438 -0.24157913 0.43161502 0.43829656 -0.049820557 0.1597995 0.0057644225 0.47398135 -0.1852303 0.11083802 -0.08926617 0.5130816 -0.08617511 0.21747717 0.014820347 -0.11380012 0.06461452 -0.2033632 -0.1228846 -0.32170284 -0.2640275 0.6333928 0.021544613 -0.06165313 -0.10049505 -0.091666505 -0.61089325 -0.51643664 -0.2376674 -0.16419743 0.18184249 -0.18510899 -0.20682481 0.45790368 -0.4542783 -0.119585015 -0.0067324564 0.09194836 0.17449604 0.121723 -0.33949018 0.017938206 0.019564467 -0.06824163 -0.6697772 -0.022708675 0.012389398 0.41313395 0.38875774 -0.089596085 0.04150382 -0.41297325 -0.23449086 -0.1594302 -0.16549045 0.12462458 0.021326121 -0.066749714 0.7098458 -0.008210569 -0.07588055 -0.09360081 -0.3367432 -0.1829246 0.24951331 -0.17007273
203 0.19236293 0.17038503 -0.19395904 -0.6094433 0.009207346 -0.24983594 0.16705067 0.22609273 0.22862656 0.31844458 -0.1394137 0.43793264 -0.42852086 -0.3379961 -0.036392935 0.19105844 0.024186749 -0.12572505 0.102080956 -0.048436668 -0.13610828 0.1963717 -0.12399566 -0.56310713 0.32065988 -0.37400976 -0.014045524 -0.00030594293 0.26657817 0.006728161 0.114825025 -0.040268514 -0.372792 0.046363592 0.24876015 0.3739234 -0.02833382 -0.029544273 0.099994466 -0.4177574 0.16323073 -0.03312183 0.33674747 -0.082975835 -0.1125862 0.70546573 0.22994204 0.6888756 0.47497776 -0.038665187 -0.3574949 -0.15961517 0.1002916 -0.3983255 0.36901486 0.32598767 -0.04122572 -0.5838725 -0.73360634 -0.3401216 0.14889611 -0.24411167 0.69733095 -0.5129258 0.037384756 0.040480316 -0.18298659 -0.5357135 -0.27761796 0.39590767 0.5568217 0.016931744 0.16104956 0.028037673 -0.4493761 -0.2776931 0.04422779 0.30806231 0.34335843 -0.083360374 0.36501175 -0.029050933 0.14657798 0.71484315 -0.3027068 0.078904115 -0.1468659 0.22335157 0.09119805 -0.2269351 0.25682518 0.3988304 -0.7567181 -0.65735155 -0.68138415 0.25718373 -0.3589604 0.24350372 0.056732845 -0.15998287 0.17383456 0.16436172 0.20750864 0.07291536 -0.13107467 0.20535861 -0.10664208 -0.09710131 0.20380265 -0.12706384 0.054574408 0.17681764 -0.15178293 -0.14337513 -0.36852735 0.17387627 -0.17380968 -0.00792126 -0.04468176 0.08022702 0.120457366 -0.5190961 -0.17941356 -0.4716119 -0.4337149 0.0032063157 -0.20104831 -0.095245026
946 0.3768506 0.031140551 0.32132638 -0.17613515 -0.17923607 -0.14693484 0.45789576 0.15795244 -0.4864167 0.29119545 -0.41038746 0.011490115 -0.24922845 0.3062595 0.101162694 0.04962145 0.2739951 -0.026450466 -0.09450002 0.58617646 -0.10835338 -0.096029006 -0.41257188 0.2915874 0.4953213 -0.35727632 -0.41810423 -0.28548902 0.1056517 -0.06617427 0.11546172 0.0638559 -0.6709558 0.08178541 -0.04087835 -0.13051835 0.041748118 -0.059288464 -0.2916276 -0.79862213 0.012330655 -0.10636415 0.32594296 -0.05050273 -0.09245388 -0.23741914 0.35536635 0.71333545 -0.01697642 -0.3692693 -0.5769975 0.2455518 -0.40215665 -0.12434455 -0.22872993 -0.024215484 0.2770887 -0.62963355 -0.28016666 -0.4421222 0.074339814 -0.11893771 0.09813483 -0.10266005 -0.2170716 -0.1383811 -0.1146988 0.14554009 0.21946938 0.25354075 -0.12574401 -0.29763713 -0.2230499 0.44843334 -0.07658788 -0.56738144 -0.08297663 0.17613667 0.12626348 0.43266606 -0.38298726 -0.50462645 -0.268708 -0.07091683 0.114259124 0.16812624 0.07816742 0.2650058 -0.508314 -0.2996316 0.09446568 0.44945386 0.3947241 -0.32953122 -0.47409576 0.18432531 0.013244825 0.16126584 0.20453788 0.07180342 0.27345514 0.31750104 -0.10601517 0.54880947 0.25447264 0.21035083 0.011146296 -0.15493338 0.17339797 0.14043333 0.20726734 -0.1189277 0.21488251 -0.22280788 0.1835839 0.33665636 0.39149967 -0.052226394 -0.5245592 -0.118156336 0.12791154 0.030734774 -0.54030746 -0.17683367 -0.68690753 -0.49232537 0.07964216 -0.47563788
738 0.37659964 0.020696506 0.26376852 -0.25998044 -0.11811804 -0.10588891 0.4175121 0.19280908 -0.49251074 0.30884728 -0.4430411 0.037406627 -0.25048468 0.36509606 0.077143796 0.04870511 0.3057268 -0.055699866 -0.11517723 0.60706246 -0.10326363 -0.16248046 -0.47025335 0.30615962 0.42215562 -0.33723757 -0.4244338 -0.24404778 0.05942386 -0.04213219 0.08256783 0.023744373 -0.69303125 0.15336451 -0.039588965 -0.13884439 0.012568322 -0.030875599 -0.36000258 -0.8125883 -0.03134154 -0.10432704 0.2978697 -0.010236896 0.06978903 -0.25073174 0.389253 0.7353817 -0.068474084 -0.28089443 -0.50640213 0.20451412 -0.32122236 -0.15063068 -0.20845443 -0.07014846 0.21833085 -0.6401779 -0.2956718 -0.3958472 0.04094187 -0.2527792 0.044055928 -0.13290803 -0.17147811 -0.14875613 -0.08384016 0.114915 0.20914407 0.3493103 -0.10740833 -0.29266375 -0.13348764 0.3742416 -0.0834299 -0.5739331 -0.09994078 0.25954112 0.12848791 0.39730966 -0.40403467 -0.575085 -0.24391527 0.0018137278 0.15285663 0.20185575 0.01935783 0.2838479 -0.58517617 -0.23105885 0.06524447 0.36843503 0.40171066 -0.26831216 -0.49420416 0.20361988 0.01575868 0.2181833 0.15221547 0.020020356 0.24625999 0.2711719 -0.10402417 0.5352449 0.20904796 0.17027774 0.11942738 -0.13049312 0.11951766 0.15682147 0.2601192 -0.11292215 0.1709894 -0.24761474 0.16778708 0.45380852 0.27567253 0.006903502 -0.49171686 -0.041261647 0.22026564 0.021484643 -0.5179264 -0.20003581 -0.6784327 -0.44556126 0.13558555 -0.46594265
350 -0.0899744 -0.15735158 -0.039266348 -0.057476986 -0.0638575 -0.36868665 0.22688092 -0.10838069 -0.5501295 -0.32504258 0.07733384 -0.0047997576 -0.5913556 -0.14122339 0.0811184 -0.041094787 -0.18609884 0.39319867 0.066458784 0.4699136 -0.31887293 0.4626144 -0.23903194 -0.01137725 0.019462822 -0.4126407 -0.57570696 -0.4410745 0.08011007 0.07726852 0.057399962 0.14691249 -0.6696171 -0.30224448 0.27359095 0.10248599 0.19905849 0.15804109 -0.7804096 -0.09248518 0.06852489 0.20470707 -0.36417505 -0.5373993 -0.13112655 -0.04445233 0.1918206 0.7248278 0.39070648 -0.21444081 -0.45004013 -0.19462861 -0.03269631 0.46841207 -0.12052005 0.12233053 0.13710219 -0.41248128 0.086168475 -0.34542236 0.12990332 0.1279436 0.661549 0.3204032 -0.16282538 0.6774882 -0.33710036 -0.110046275 -0.5367333 0.027373478 0.23664686 -0.11717001 0.24571547 0.5012229 0.2767731 -0.2917636 0.13538398 -0.114727885 0.49566305 -0.2616779 -0.027888466 -0.105042174 -0.15535422 0.12030047 0.17308043 -0.3438142 0.23880194 0.31029376 -0.38388538 -0.87319714 -0.18196101 0.07511948 0.08297879 -0.4407314 -0.5912843 -0.027725197 -0.32670712 0.08428594 0.50231594 -0.46365774 0.027658598 0.33483794 -0.6634666 -0.06447801 -0.21646225 0.30033866 0.15527849 0.281326 0.006873852 0.20508607 0.47309005 -0.40383932 0.016603986 -0.15216646 -0.31898072 0.0033866446 -0.070764735 -0.062528074 -0.048253898 0.30689764 0.71973747 -0.24761152 -0.048590392 -0.022497827 -0.32742485 -0.26674563 0.38404602 0.10230807
361 0.2928206 0.14739221 -0.10157262 -0.6485582 0.18673499 -0.32507044 0.1002832 0.32706913 0.14617044 0.41326037 -0.11411489 0.26279646 -0.5782043 -0.31415886 -0.12547973 0.22864892 -0.09253442 -0.13949998 0.071392454 0.121747866 -0.17112257 0.11816883 -0.133607 -0.48566717 0.44979316 -0.5128699 -0.07082944 -0.10663961 0.22778812 0.02899652 0.18463823 0.021023763 -0.48657408 0.014535137 0.14506951 0.41039112 0.02448411 -0.047368187 0.11844988 -0.54191697 0.1950408 0.02397074 0.24014007 -0.15315004 -0.19158684 0.745831 0.048932962 0.5298904 0.5048678 -0.22036827 -0.40359995 -0.074322276 0.042535838 -0.43722108 0.28549722 0.3187669 -0.018059792 -0.6888077 -0.67309004 -0.475107 0.08911264 -0.24213515 0.596378 -0.5780738 -0.009277323 0.042667016 -0.27230817 -0.6250982 -0.26551887 0.4622429 0.5086566 0.059779733 0.23253462 0.09988578 -0.48106074 -0.19022197 -0.05043301 0.34076062 0.4365341 -0.17699422 0.2502059 0.043417115 0.050461624 0.6380111 -0.2716855 0.0036181635 0.009382306 0.32065046 0.0128192725 -0.27587262 0.1946545 0.42462516 -0.7274745 -0.681073 -0.66270727 0.16097753 -0.4461886 0.25846392 0.0025885762 -0.13091229 0.2048938 0.083140515 0.052377872 0.087859616 -0.21575089 0.33022204 -0.22580348 -0.0794545 0.21308933 -0.03349006 -0.030861791 0.12807073 -0.08954759 -0.26765144 -0.3154596 0.045878835 -0.11678952 -0.023553088 -0.07365383 -0.07474346 0.040163465 -0.66665435 -0.2544523 -0.34896296 -0.52476937 -0.052870568 -0.23752014 -0.07258541
973 0.6379289 0.16997403 0.30083576 -0.15489005 -0.07937674 -0.54262817 -0.07951832 0.105271265 -0.35422897 0.32418796 -0.18991199 -0.11613165 0.20484222 0.2131342 0.07371948 0.39326006 -0.3757981 -0.38304743 -0.05637744 -0.051655952 -0.26303554 -0.62020814 -0.009969644 -0.17608206 0.015414897 -0.27067772 -0.24946028 -0.3363909 -0.045377903 0.548159 0.28559488 -0.13664627 -0.58301014 -0.013560508 0.31887406 0.27320957 -0.028998569 -0.22526225 -0.044476833 -0.42891794 0.14461467 -0.16496263 0.42332846 -0.32780692 0.13488339 0.05959193 0.31505945 0.9042269 0.23602985 -0.36464122 0.35865876 0.44968116 -0.17220858 0.38697925 0.4708724 0.1878902 0.05235401 0.036102105 0.0063502053 0.007673991 -0.09846264 0.47834274 0.55009097 0.21225296 0.0378062 0.08351351 0.010354057 0.0012278705 0.08534418 0.39313608 0.4177969 0.3288911 0.19681577 0.41475385 -0.34639898 -0.30372474 -0.20397307 0.23113641 0.43836752 0.19205937 -0.032261375 -0.70637953 0.36033913 -0.3382607 -0.00490178 -0.3636248 -0.2018223 0.7052588 -0.109424815 -0.6260731 -0.102184705 -0.07331625 0.098907076 -0.87842673 -0.70812285 0.8704539 -0.3676539 -0.21771538 0.32723913 -0.038326297 0.112224944 0.8074702 -0.23681875 0.05112418 -0.5100589 0.48391038 -0.09445421 0.026701901 0.3809747 0.02072423 0.12859589 0.31390014 0.2965672 -0.27853724 -0.261747 -0.20274128 -0.08312987 0.29133964 -0.23764592 0.47530916 -0.028920336 -0.15567131 0.4295789 -0.2783173 -0.8830592 -0.438947 0.38071966 -0.09600886
659 0.1935863 0.37853587 0.057570826 -0.19298851 0.083614066 0.16734467 0.17371233 0.24954443 0.22640027 -0.1232192 -0.31872663 0.36642027 -0.25054768 0.18331058 -0.13490352 0.113347895 0.1810506 -0.03215453 -0.29320374 0.00976381 0.5585098 -0.13232712 -0.07728978 0.08563728 -0.13983677 -0.36861143 -0.0776303 -0.3562057 -0.10665806 0.023685785 0.38952863 -0.08315442 -0.35151044 -0.3871584 -0.22856787 0.16538735 -0.13168927 0.1791282 -0.27930441 -0.35859364 0.2089282 -0.06371341 0.16964921 -0.3659942 0.20606278 0.20888883 0.064630665 0.044170383 -0.14868976 -0.042804264 0.11631145 -0.15239134 0.4738608 0.40186852 0.014921716 0.37277812 0.2184046 -0.24834388 -0.47552252 -0.3339467 0.40549713 -0.057816476 0.83383644 -0.35475877 -0.6631808 0.22430588 -0.24576671 0.11563919 0.092475235 0.24841926 0.27256382 -0.27960798 0.17587209 0.2306976 -0.5739946 -0.25061157 -0.1035415 -0.057209987 0.17723042 -0.42002177 0.5610954 -0.37916026 -0.26271227 0.39535925 0.14864695 -0.046327673 0.03877662 0.57778895 -0.10674369 -1.0177122 -0.26123396 -0.028343098 -0.10684757 -0.39112186 -0.20964666 0.26654154 -0.33726588 0.22472765 0.31120315 -0.389617 0.14913966 0.25575066 -0.16710082 0.1876779 0.16398945 0.1701926 0.45616588 0.16607097 -0.031655133 -0.004538533 0.37959862 -0.19346014 -0.11927017 -0.2678381 0.611023 0.30713445 0.16528353 0.08535566 -0.046350468 0.4721518 0.39988458 -0.21098627 -0.07043184 0.13477643 -0.4579987 -0.23776221 -0.33010608 0.18272786
122 0.58358675 -0.045606628 -0.3727112 0.086289905 0.15151213 0.049857005 0.10718516 0.4641179 -0.42730442 0.54926455 -0.06182295 -0.42481628 -0.35283095 -0.084856704 0.017236464 0.011462466 0.04062332 -0.57699394 -0.21746543 0.14896742 0.102011256 0.2196915 -0.094732225 -0.044036075 -0.2471297 0.12269375 -0.25404036 -0.66590524 0.39586848 0.19329582 0.36261666 0.12132732 -0.29898402 -0.20243177 -0.00978916 -0.08524689 -0.46726 -0.055352777 -0.15178949 -0.088423826 0.29867944 -0.32415885 0.23095343 0.2202676 0.25626445 0.31002915 0.03357698 0.5107057 0.21729492 0.058887832 0.09913691 0.3695451 0.2591435 0.083204135 -0.0037939877 -0.16065739 -0.506646 -0.3908845 -0.11716629 -0.18147784 -0.119120866 -0.28001398 0.3753885 -0.4782282 0.49313435 0.45532054 -0.21979767 -0.2560962 0.01793338 0.5957795 0.6525179 -0.32351968 -0.21387503 0.45706895 -0.1872038 -0.10562998 -0.14056812 0.42207798 0.37842447 -0.15254141 -0.28061667 -0.012349194 -0.27698377 0.29072988 0.28523877 0.06564706 0.56420076 0.42318076 -0.5946628 -0.37852168 0.2006124 0.056687064 0.07445623 -0.42147815 0.008135348 0.44350332 -0.01977083 -0.06988633 0.39547735 -0.08332472 -0.100500315 -0.0063955896 -0.20937793 -0.07075184 -0.34317833 0.19246262 -0.40332475 -0.28186586 0.45401734 0.11135592 0.5998619 -0.38552362 0.07671589 -0.24022524 -0.3199209 -0.45860794 -0.09162741 0.5166327 -0.40090692 0.28956392 0.28022316 -0.8951743 0.057820823 0.19796653 -0.56723636 0.035370447 0.17956083 -0.22420469
859 0.39223132 0.13505447 -0.26719964 -0.49955642 0.20101024 -0.18821432 0.07954093 0.35707325 0.10622752 0.38374445 -0.1265801 0.101555794 -0.57211065 -0.4015732 -0.1621401 0.2204469 -0.044899665 -0.1712249 0.06595731 0.06537689 -0.03805405 0.34802544 -0.10202784 -0.5141428 0.27782217 -0.3291877 -0.030032704 -0.22103798 0.28337163 0.007590242 0.2448376 0.06833326 -0.4352866 0.045612376 0.16287519 0.35378376 -0.18248539 -0.03750475 0.14815079 -0.3464131 0.1914947 -0.07454054 0.22341166 -0.10520435 -0.11034996 0.7750746 0.11877026 0.5583013 0.42188102 -0.050731614 -0.29718357 -0.02758739 0.08459056 -0.3902768 0.24873057 0.25544244 -0.110662274 -0.62907106 -0.644465 -0.42725 0.100361824 -0.30757463 0.57566744 -0.5506011 0.068663485 0.11657496 -0.3666613 -0.61633855 -0.3029569 0.47941875 0.62923956 -0.11739603 0.15374921 0.09580738 -0.4565387 -0.11714547 -0.071026914 0.35555992 0.40940195 -0.20922701 0.21350695 0.19134896 -0.055611257 0.60874194 -0.10933026 0.075832866 0.21159457 0.26574403 -0.044554263 -0.22725008 0.2702154 0.42242914 -0.6354141 -0.65180695 -0.5783245 0.14497212 -0.39190894 0.21761066 0.041759077 -0.07485273 0.05790794 0.044701617 0.036154065 -0.07878893 -0.29570496 0.30417225 -0.2679039 -0.07767414 0.28460777 -0.028620305 0.07999597 0.029187474 -0.10357441 -0.30825314 -0.3674731 -0.1775728 -0.11548392 0.1266975 -0.13719079 -0.028079234 0.11336389 -0.85668135 -0.16970798 -0.22207405 -0.46653834 0.06491698 -0.16257627 -0.12056088
782 -0.08034285 0.2296623 -0.35597026 -0.51559085 -0.08863415 -0.20726193 0.3037043 0.009935804 -0.1340182 0.027999157 0.19607572 -0.01695695 -0.20378841 0.042796046 0.21365294 -0.13105665 0.08797315 0.040657274 0.03363848 -0.29087275 -0.38262272 -0.43203244 -0.06302529 -0.21333519 -0.02824041 -0.3606029 -0.12442578 -0.13292478 -0.08997722 0.47351447 -0.25533321 -0.12155599 -0.3792334 -0.28189042 -0.04012376 -0.039908517 -0.13450709 -0.16397077 -0.32468355 -0.35742444 -0.083551 0.013430063 0.30655256 0.34497106 0.2770523 -0.13908091 -0.0022041716 0.10603755 0.054304816 0.07385709 -0.06684263 0.26708946 0.005036972 -0.40135214 0.29388022 -0.29184785 -0.19542249 -0.29947895 -0.07306168 0.18829921 -0.35015377 -0.21432748 -0.14382131 -0.27369907 0.21938477 0.47345203 -0.06331572 0.20254076 0.22202148 0.50849867 -0.038293082 0.071451016 0.05130909 0.49813098 -0.09018391 -0.091380194 0.16558078 -0.17530033 -0.116464876 -0.1865489 -0.17366391 -0.2960056 -0.2752716 0.7861668 -0.13588752 -0.056934994 -0.17284952 0.04086465 -0.4037532 -0.57519597 -0.5248922 -0.14023522 -0.0037618345 -0.20222653 0.035013787 0.5341934 -0.5435508 -0.18043476 0.2772186 -0.28524444 0.3188845 0.18128277 -0.32110792 -0.06889976 0.10601567 -0.12035655 -0.4294132 -0.06406721 0.05036604 0.5921983 0.3093543 0.013257732 0.095769644 -0.3742234 -0.40341306 -0.1277812 -0.13855056 0.2943733 0.22176056 0.016295968 0.51971173 -0.0060009374 -0.013950382 -0.2185634 -0.404244 -0.42763823 0.25041214 0.03458908
